digraph Tree {
node [shape=box, style="filled, rounded", color="black", fontname=helvetica] ;
edge [fontname=helvetica] ;
0 [label="sepal length (cm) <= 5.55\ngini = 0.67\nsamples = 91\nvalue = [49, 47, 54]\nclass = virginica", fillcolor="#8139e50d"] ;
1 [label="petal length (cm) <= 2.6\ngini = 0.33\nsamples = 30\nvalue = [46, 8, 3]\nclass = setosa", fillcolor="#e58139c6"] ;
0 -> 1 [labeldistance=2.5, labelangle=45, headlabel="True"] ;
2 [label="gini = 0.0\nsamples = 25\nvalue = [46, 0, 0]\nclass = setosa", fillcolor="#e58139ff"] ;
1 -> 2 ;
3 [label="sepal length (cm) <= 4.95\ngini = 0.4\nsamples = 5\nvalue = [0, 8, 3]\nclass = versicolor", fillcolor="#39e5819f"] ;
1 -> 3 ;
4 [label="gini = 0.0\nsamples = 1\nvalue = [0, 0, 3]\nclass = virginica", fillcolor="#8139e5ff"] ;
3 -> 4 ;
5 [label="gini = 0.0\nsamples = 4\nvalue = [0, 8, 0]\nclass = versicolor", fillcolor="#39e581ff"] ;
3 -> 5 ;
6 [label="sepal length (cm) <= 5.95\ngini = 0.52\nsamples = 61\nvalue = [3, 39, 51]\nclass = virginica", fillcolor="#8139e539"] ;
0 -> 6 [labeldistance=2.5, labelangle=-45, headlabel="False"] ;
7 [label="petal length (cm) <= 4.85\ngini = 0.43\nsamples = 17\nvalue = [3, 19, 4]\nclass = versicolor", fillcolor="#39e581ae"] ;
6 -> 7 ;
8 [label="petal length (cm) <= 2.6\ngini = 0.24\nsamples = 14\nvalue = [3, 19, 0]\nclass = versicolor", fillcolor="#39e581d7"] ;
7 -> 8 ;
9 [label="gini = 0.0\nsamples = 3\nvalue = [3, 0, 0]\nclass = setosa", fillcolor="#e58139ff"] ;
8 -> 9 ;
10 [label="gini = 0.0\nsamples = 11\nvalue = [0, 19, 0]\nclass = versicolor", fillcolor="#39e581ff"] ;
8 -> 10 ;
11 [label="gini = 0.0\nsamples = 3\nvalue = [0, 0, 4]\nclass = virginica", fillcolor="#8139e5ff"] ;
7 -> 11 ;
12 [label="sepal width (cm) <= 2.4\ngini = 0.42\nsamples = 44\nvalue = [0, 20, 47]\nclass = virginica", fillcolor="#8139e592"] ;
6 -> 12 ;
13 [label="gini = 0.0\nsamples = 3\nvalue = [0, 4, 0]\nclass = versicolor", fillcolor="#39e581ff"] ;
12 -> 13 ;
14 [label="petal length (cm) <= 4.75\ngini = 0.38\nsamples = 41\nvalue = [0, 16, 47]\nclass = virginica", fillcolor="#8139e5a8"] ;
12 -> 14 ;
15 [label="gini = 0.0\nsamples = 8\nvalue = [0, 10, 0]\nclass = versicolor", fillcolor="#39e581ff"] ;
14 -> 15 ;
16 [label="petal width (cm) <= 1.75\ngini = 0.2\nsamples = 33\nvalue = [0, 6, 47]\nclass = virginica", fillcolor="#8139e5de"] ;
14 -> 16 ;
17 [label="petal length (cm) <= 5.05\ngini = 0.38\nsamples = 6\nvalue = [0, 6, 2]\nclass = versicolor", fillcolor="#39e581aa"] ;
16 -> 17 ;
18 [label="gini = 0.0\nsamples = 3\nvalue = [0, 5, 0]\nclass = versicolor", fillcolor="#39e581ff"] ;
17 -> 18 ;
19 [label="petal length (cm) <= 5.45\ngini = 0.44\nsamples = 3\nvalue = [0, 1, 2]\nclass = virginica", fillcolor="#8139e57f"] ;
17 -> 19 ;
20 [label="petal width (cm) <= 1.55\ngini = 0.5\nsamples = 2\nvalue = [0, 1, 1]\nclass = versicolor", fillcolor="#39e58100"] ;
19 -> 20 ;
21 [label="gini = 0.0\nsamples = 1\nvalue = [0, 0, 1]\nclass = virginica", fillcolor="#8139e5ff"] ;
20 -> 21 ;
22 [label="gini = 0.0\nsamples = 1\nvalue = [0, 1, 0]\nclass = versicolor", fillcolor="#39e581ff"] ;
20 -> 22 ;
23 [label="gini = 0.0\nsamples = 1\nvalue = [0, 0, 1]\nclass = virginica", fillcolor="#8139e5ff"] ;
19 -> 23 ;
24 [label="gini = 0.0\nsamples = 27\nvalue = [0, 0, 45]\nclass = virginica", fillcolor="#8139e5ff"] ;
16 -> 24 ;
}