digraph Tree {
node [shape=box, style="rounded", color="black", fontname=helvetica] ;
edge [fontname=helvetica] ;
0 [label="age-min <= 0.19\ngini = 0.53\nsamples = 1901\nvalue = [222, 465, 347, 1939]\nclass = non-vulnerable"] ;
1 [label="inst-max <= 0.81\ngini = 0.64\nsamples = 927\nvalue = [154, 302, 213, 762]\nclass = non-vulnerable"] ;
0 -> 1 [labeldistance=2.5, labelangle=45, headlabel="True"] ;
2 [label="pisomoscer <= 0.5\ngini = 0.71\nsamples = 663\nvalue = [146, 275, 191, 429]\nclass = non-vulnerable"] ;
1 -> 2 ;
3 [label="inst-max <= 0.44\ngini = 0.73\nsamples = 294\nvalue = [93, 157, 78, 128]\nclass = moderate"] ;
2 -> 3 ;
4 [label="escolari-sum <= 0.15\ngini = 0.72\nsamples = 219\nvalue = [75, 130, 58, 76]\nclass = moderate"] ;
3 -> 4 ;
5 [label="phones-per-capita <= 0.14\ngini = 0.72\nsamples = 123\nvalue = [60, 67, 32, 33]\nclass = moderate"] ;
4 -> 5 ;
6 [label="escolari/age-max <= 0.2\ngini = 0.56\nsamples = 34\nvalue = [22, 37, 2, 4]\nclass = moderate"] ;
5 -> 6 ;
7 [label="gini = 0.0\nsamples = 2\nvalue = [4, 0, 0, 0]\nclass = extreme"] ;
6 -> 7 ;
8 [label="inst-std <= 0.09\ngini = 0.54\nsamples = 32\nvalue = [18, 37, 2, 4]\nclass = moderate"] ;
6 -> 8 ;
9 [label="escolari-max <= 0.17\ngini = 0.32\nsamples = 5\nvalue = [4, 0, 1, 0]\nclass = extreme"] ;
8 -> 9 ;
10 [label="gini = 0.0\nsamples = 1\nvalue = [0, 0, 1, 0]\nclass = vulnerable"] ;
9 -> 10 ;
11 [label="gini = 0.0\nsamples = 4\nvalue = [4, 0, 0, 0]\nclass = extreme"] ;
9 -> 11 ;
12 [label="inst/age-range_ <= 0.39\ngini = 0.5\nsamples = 27\nvalue = [14, 37, 1, 4]\nclass = moderate"] ;
8 -> 12 ;
13 [label="escolari/age-sum <= 0.15\ngini = 0.48\nsamples = 26\nvalue = [12, 37, 1, 4]\nclass = moderate"] ;
12 -> 13 ;
14 [label="escolari/age-sum <= 0.13\ngini = 0.44\nsamples = 25\nvalue = [9, 37, 1, 4]\nclass = moderate"] ;
13 -> 14 ;
15 [label="inst/age-range_ <= 0.11\ngini = 0.52\nsamples = 20\nvalue = [9, 25, 1, 4]\nclass = moderate"] ;
14 -> 15 ;
16 [label="gini = 0.0\nsamples = 1\nvalue = [2, 0, 0, 0]\nclass = extreme"] ;
15 -> 16 ;
17 [label="r4m3 <= 0.31\ngini = 0.5\nsamples = 19\nvalue = [7, 25, 1, 4]\nclass = moderate"] ;
15 -> 17 ;
18 [label="r4m3 <= 0.19\ngini = 0.65\nsamples = 13\nvalue = [7, 11, 1, 4]\nclass = moderate"] ;
17 -> 18 ;
19 [label="walls+roof+floor <= 0.25\ngini = 0.38\nsamples = 7\nvalue = [2, 10, 1, 0]\nclass = moderate"] ;
18 -> 19 ;
20 [label="walls+roof+floor <= 0.08\ngini = 0.44\nsamples = 2\nvalue = [2, 0, 1, 0]\nclass = extreme"] ;
19 -> 20 ;
21 [label="gini = 0.0\nsamples = 1\nvalue = [0, 0, 1, 0]\nclass = vulnerable"] ;
20 -> 21 ;
22 [label="gini = 0.0\nsamples = 1\nvalue = [2, 0, 0, 0]\nclass = extreme"] ;
20 -> 22 ;
23 [label="gini = 0.0\nsamples = 5\nvalue = [0, 10, 0, 0]\nclass = moderate"] ;
19 -> 23 ;
24 [label="escolari/age-std <= 0.37\ngini = 0.58\nsamples = 6\nvalue = [5, 1, 0, 4]\nclass = extreme"] ;
18 -> 24 ;
25 [label="walls <= 0.25\ngini = 0.28\nsamples = 4\nvalue = [5, 1, 0, 0]\nclass = extreme"] ;
24 -> 25 ;
26 [label="gini = 0.0\nsamples = 1\nvalue = [0, 1, 0, 0]\nclass = moderate"] ;
25 -> 26 ;
27 [label="gini = 0.0\nsamples = 3\nvalue = [5, 0, 0, 0]\nclass = extreme"] ;
25 -> 27 ;
28 [label="gini = 0.0\nsamples = 2\nvalue = [0, 0, 0, 4]\nclass = non-vulnerable"] ;
24 -> 28 ;
29 [label="gini = 0.0\nsamples = 6\nvalue = [0, 14, 0, 0]\nclass = moderate"] ;
17 -> 29 ;
30 [label="gini = 0.0\nsamples = 5\nvalue = [0, 12, 0, 0]\nclass = moderate"] ;
14 -> 30 ;
31 [label="gini = 0.0\nsamples = 1\nvalue = [3, 0, 0, 0]\nclass = extreme"] ;
13 -> 31 ;
32 [label="gini = 0.0\nsamples = 1\nvalue = [2, 0, 0, 0]\nclass = extreme"] ;
12 -> 32 ;
33 [label="age-sum <= 0.09\ngini = 0.75\nsamples = 89\nvalue = [38, 30, 30, 29]\nclass = extreme"] ;
5 -> 33 ;
34 [label="escolari-std <= 0.23\ngini = 0.38\nsamples = 18\nvalue = [21, 3, 1, 2]\nclass = extreme"] ;
33 -> 34 ;
35 [label="walls+roof+floor <= 0.58\ngini = 0.72\nsamples = 6\nvalue = [2, 2, 1, 1]\nclass = extreme"] ;
34 -> 35 ;
36 [label="escolari-range_ <= 0.21\ngini = 0.44\nsamples = 3\nvalue = [2, 1, 0, 0]\nclass = extreme"] ;
35 -> 36 ;
37 [label="gini = 0.0\nsamples = 2\nvalue = [2, 0, 0, 0]\nclass = extreme"] ;
36 -> 37 ;
38 [label="gini = 0.0\nsamples = 1\nvalue = [0, 1, 0, 0]\nclass = moderate"] ;
36 -> 38 ;
39 [label="escolari-std <= 0.1\ngini = 0.67\nsamples = 3\nvalue = [0, 1, 1, 1]\nclass = moderate"] ;
35 -> 39 ;
40 [label="gini = 0.0\nsamples = 1\nvalue = [0, 1, 0, 0]\nclass = moderate"] ;
39 -> 40 ;
41 [label="escolari/age-max <= 0.29\ngini = 0.5\nsamples = 2\nvalue = [0, 0, 1, 1]\nclass = vulnerable"] ;
39 -> 41 ;
42 [label="gini = 0.0\nsamples = 1\nvalue = [0, 0, 0, 1]\nclass = non-vulnerable"] ;
41 -> 42 ;
43 [label="gini = 0.0\nsamples = 1\nvalue = [0, 0, 1, 0]\nclass = vulnerable"] ;
41 -> 43 ;
44 [label="inst/age-range_ <= 0.16\ngini = 0.18\nsamples = 12\nvalue = [19, 1, 0, 1]\nclass = extreme"] ;
34 -> 44 ;
45 [label="gini = 0.0\nsamples = 1\nvalue = [0, 0, 0, 1]\nclass = non-vulnerable"] ;
44 -> 45 ;
46 [label="paredblolad <= 0.5\ngini = 0.09\nsamples = 11\nvalue = [19, 1, 0, 0]\nclass = extreme"] ;
44 -> 46 ;
47 [label="gini = 0.0\nsamples = 8\nvalue = [13, 0, 0, 0]\nclass = extreme"] ;
46 -> 47 ;
48 [label="inst/age-std <= 0.36\ngini = 0.24\nsamples = 3\nvalue = [6, 1, 0, 0]\nclass = extreme"] ;
46 -> 48 ;
49 [label="gini = 0.0\nsamples = 2\nvalue = [6, 0, 0, 0]\nclass = extreme"] ;
48 -> 49 ;
50 [label="gini = 0.0\nsamples = 1\nvalue = [0, 1, 0, 0]\nclass = moderate"] ;
48 -> 50 ;
51 [label="dependency <= 0.16\ngini = 0.74\nsamples = 71\nvalue = [17, 27, 29, 27]\nclass = vulnerable"] ;
33 -> 51 ;
52 [label="instlevel4-std <= 0.76\ngini = 0.72\nsamples = 51\nvalue = [10, 13, 24, 25]\nclass = non-vulnerable"] ;
51 -> 52 ;
53 [label="inst/age-std <= 0.11\ngini = 0.7\nsamples = 36\nvalue = [8, 9, 22, 12]\nclass = vulnerable"] ;
52 -> 53 ;
54 [label="inst-std <= 0.11\ngini = 0.56\nsamples = 7\nvalue = [1, 4, 0, 6]\nclass = non-vulnerable"] ;
53 -> 54 ;
55 [label="gini = 0.0\nsamples = 2\nvalue = [0, 0, 0, 4]\nclass = non-vulnerable"] ;
54 -> 55 ;
56 [label="escolari-std <= 0.22\ngini = 0.57\nsamples = 5\nvalue = [1, 4, 0, 2]\nclass = moderate"] ;
54 -> 56 ;
57 [label="bedrooms <= 0.21\ngini = 0.32\nsamples = 4\nvalue = [1, 4, 0, 0]\nclass = moderate"] ;
56 -> 57 ;
58 [label="gini = 0.0\nsamples = 3\nvalue = [0, 4, 0, 0]\nclass = moderate"] ;
57 -> 58 ;
59 [label="gini = 0.0\nsamples = 1\nvalue = [1, 0, 0, 0]\nclass = extreme"] ;
57 -> 59 ;
60 [label="gini = 0.0\nsamples = 1\nvalue = [0, 0, 0, 2]\nclass = non-vulnerable"] ;
56 -> 60 ;
61 [label="escolari/age-max <= 0.39\ngini = 0.63\nsamples = 29\nvalue = [7, 5, 22, 6]\nclass = vulnerable"] ;
53 -> 61 ;
62 [label="escolari-std <= 0.19\ngini = 0.38\nsamples = 12\nvalue = [0, 1, 13, 3]\nclass = vulnerable"] ;
61 -> 62 ;
63 [label="escolari/age-std <= 0.07\ngini = 0.5\nsamples = 4\nvalue = [0, 0, 2, 2]\nclass = vulnerable"] ;
62 -> 63 ;
64 [label="gini = 0.0\nsamples = 1\nvalue = [0, 0, 0, 1]\nclass = non-vulnerable"] ;
63 -> 64 ;
65 [label="walls+roof+floor <= 0.25\ngini = 0.44\nsamples = 3\nvalue = [0, 0, 2, 1]\nclass = vulnerable"] ;
63 -> 65 ;
66 [label="gini = 0.0\nsamples = 1\nvalue = [0, 0, 0, 1]\nclass = non-vulnerable"] ;
65 -> 66 ;
67 [label="gini = 0.0\nsamples = 2\nvalue = [0, 0, 2, 0]\nclass = vulnerable"] ;
65 -> 67 ;
68 [label="walls <= 0.75\ngini = 0.27\nsamples = 8\nvalue = [0, 1, 11, 1]\nclass = vulnerable"] ;
62 -> 68 ;
69 [label="instlevel2-std <= 0.35\ngini = 0.18\nsamples = 6\nvalue = [0, 0, 9, 1]\nclass = vulnerable"] ;
68 -> 69 ;
70 [label="age-max <= 0.16\ngini = 0.44\nsamples = 3\nvalue = [0, 0, 2, 1]\nclass = vulnerable"] ;
69 -> 70 ;
71 [label="gini = 0.0\nsamples = 1\nvalue = [0, 0, 0, 1]\nclass = non-vulnerable"] ;
70 -> 71 ;
72 [label="gini = 0.0\nsamples = 2\nvalue = [0, 0, 2, 0]\nclass = vulnerable"] ;
70 -> 72 ;
73 [label="gini = 0.0\nsamples = 3\nvalue = [0, 0, 7, 0]\nclass = vulnerable"] ;
69 -> 73 ;
74 [label="age-std <= 0.35\ngini = 0.44\nsamples = 2\nvalue = [0, 1, 2, 0]\nclass = vulnerable"] ;
68 -> 74 ;
75 [label="gini = 0.0\nsamples = 1\nvalue = [0, 1, 0, 0]\nclass = moderate"] ;
74 -> 75 ;
76 [label="gini = 0.0\nsamples = 1\nvalue = [0, 0, 2, 0]\nclass = vulnerable"] ;
74 -> 76 ;
77 [label="roof <= 0.25\ngini = 0.71\nsamples = 17\nvalue = [7, 4, 9, 3]\nclass = vulnerable"] ;
61 -> 77 ;
78 [label="inst/age-range_ <= 0.33\ngini = 0.32\nsamples = 3\nvalue = [4, 0, 1, 0]\nclass = extreme"] ;
77 -> 78 ;
79 [label="gini = 0.0\nsamples = 2\nvalue = [4, 0, 0, 0]\nclass = extreme"] ;
78 -> 79 ;
80 [label="gini = 0.0\nsamples = 1\nvalue = [0, 0, 1, 0]\nclass = vulnerable"] ;
78 -> 80 ;
81 [label="rooms <= 0.25\ngini = 0.7\nsamples = 14\nvalue = [3, 4, 8, 3]\nclass = vulnerable"] ;
77 -> 81 ;
82 [label="gini = 0.0\nsamples = 2\nvalue = [3, 0, 0, 0]\nclass = extreme"] ;
81 -> 82 ;
83 [label="age-range_ <= 0.53\ngini = 0.6\nsamples = 12\nvalue = [0, 4, 8, 3]\nclass = vulnerable"] ;
81 -> 83 ;
84 [label="escolari/age-max <= 0.55\ngini = 0.49\nsamples = 9\nvalue = [0, 3, 8, 1]\nclass = vulnerable"] ;
83 -> 84 ;
85 [label="gini = 0.0\nsamples = 4\nvalue = [0, 0, 7, 0]\nclass = vulnerable"] ;
84 -> 85 ;
86 [label="r4m3 <= 0.06\ngini = 0.56\nsamples = 5\nvalue = [0, 3, 1, 1]\nclass = moderate"] ;
84 -> 86 ;
87 [label="gini = 0.0\nsamples = 1\nvalue = [0, 0, 0, 1]\nclass = non-vulnerable"] ;
86 -> 87 ;
88 [label="bedrooms <= 0.21\ngini = 0.38\nsamples = 4\nvalue = [0, 3, 1, 0]\nclass = moderate"] ;
86 -> 88 ;
89 [label="gini = 0.0\nsamples = 3\nvalue = [0, 3, 0, 0]\nclass = moderate"] ;
88 -> 89 ;
90 [label="gini = 0.0\nsamples = 1\nvalue = [0, 0, 1, 0]\nclass = vulnerable"] ;
88 -> 90 ;
91 [label="r4h2 <= 0.19\ngini = 0.44\nsamples = 3\nvalue = [0, 1, 0, 2]\nclass = non-vulnerable"] ;
83 -> 91 ;
92 [label="walls+roof+floor <= 0.75\ngini = 0.5\nsamples = 2\nvalue = [0, 1, 0, 1]\nclass = moderate"] ;
91 -> 92 ;
93 [label="gini = 0.0\nsamples = 1\nvalue = [0, 0, 0, 1]\nclass = non-vulnerable"] ;
92 -> 93 ;
94 [label="gini = 0.0\nsamples = 1\nvalue = [0, 1, 0, 0]\nclass = moderate"] ;
92 -> 94 ;
95 [label="gini = 0.0\nsamples = 1\nvalue = [0, 0, 0, 1]\nclass = non-vulnerable"] ;
91 -> 95 ;
96 [label="instlevel2-sum <= 0.3\ngini = 0.56\nsamples = 15\nvalue = [2, 4, 2, 13]\nclass = non-vulnerable"] ;
52 -> 96 ;
97 [label="tech-sum <= 0.16\ngini = 0.48\nsamples = 14\nvalue = [0, 4, 2, 13]\nclass = non-vulnerable"] ;
96 -> 97 ;
98 [label="rooms-per-capita <= 0.17\ngini = 0.3\nsamples = 12\nvalue = [0, 3, 0, 13]\nclass = non-vulnerable"] ;
97 -> 98 ;
99 [label="gini = 0.0\nsamples = 7\nvalue = [0, 0, 0, 9]\nclass = non-vulnerable"] ;
98 -> 99 ;
100 [label="escolari-range_ <= 0.29\ngini = 0.49\nsamples = 5\nvalue = [0, 3, 0, 4]\nclass = non-vulnerable"] ;
98 -> 100 ;
101 [label="inst/age-std <= 0.36\ngini = 0.38\nsamples = 3\nvalue = [0, 3, 0, 1]\nclass = moderate"] ;
100 -> 101 ;
102 [label="gini = 0.0\nsamples = 1\nvalue = [0, 0, 0, 1]\nclass = non-vulnerable"] ;
101 -> 102 ;
103 [label="gini = 0.0\nsamples = 2\nvalue = [0, 3, 0, 0]\nclass = moderate"] ;
101 -> 103 ;
104 [label="gini = 0.0\nsamples = 2\nvalue = [0, 0, 0, 3]\nclass = non-vulnerable"] ;
100 -> 104 ;
105 [label="walls <= 0.75\ngini = 0.44\nsamples = 2\nvalue = [0, 1, 2, 0]\nclass = vulnerable"] ;
97 -> 105 ;
106 [label="gini = 0.0\nsamples = 1\nvalue = [0, 1, 0, 0]\nclass = moderate"] ;
105 -> 106 ;
107 [label="gini = 0.0\nsamples = 1\nvalue = [0, 0, 2, 0]\nclass = vulnerable"] ;
105 -> 107 ;
108 [label="gini = 0.0\nsamples = 1\nvalue = [2, 0, 0, 0]\nclass = extreme"] ;
96 -> 108 ;
109 [label="inst/age-range_ <= 0.47\ngini = 0.65\nsamples = 20\nvalue = [7, 14, 5, 2]\nclass = moderate"] ;
51 -> 109 ;
110 [label="rent-per-capita <= 0.0\ngini = 0.71\nsamples = 16\nvalue = [7, 7, 5, 2]\nclass = extreme"] ;
109 -> 110 ;
111 [label="parentesco2-std <= 0.32\ngini = 0.64\nsamples = 14\nvalue = [7, 7, 1, 2]\nclass = extreme"] ;
110 -> 111 ;
112 [label="roof <= 0.75\ngini = 0.63\nsamples = 10\nvalue = [6, 2, 1, 2]\nclass = extreme"] ;
111 -> 112 ;
113 [label="inst-std <= 0.16\ngini = 0.49\nsamples = 8\nvalue = [6, 2, 1, 0]\nclass = extreme"] ;
112 -> 113 ;
114 [label="meaneduc <= 0.06\ngini = 0.28\nsamples = 5\nvalue = [5, 0, 1, 0]\nclass = extreme"] ;
113 -> 114 ;
115 [label="gini = 0.0\nsamples = 1\nvalue = [0, 0, 1, 0]\nclass = vulnerable"] ;
114 -> 115 ;
116 [label="gini = 0.0\nsamples = 4\nvalue = [5, 0, 0, 0]\nclass = extreme"] ;
114 -> 116 ;
117 [label="age-min <= 0.02\ngini = 0.44\nsamples = 3\nvalue = [1, 2, 0, 0]\nclass = moderate"] ;
113 -> 117 ;
118 [label="gini = 0.0\nsamples = 1\nvalue = [1, 0, 0, 0]\nclass = extreme"] ;
117 -> 118 ;
119 [label="gini = 0.0\nsamples = 2\nvalue = [0, 2, 0, 0]\nclass = moderate"] ;
117 -> 119 ;
120 [label="gini = 0.0\nsamples = 2\nvalue = [0, 0, 0, 2]\nclass = non-vulnerable"] ;
112 -> 120 ;
121 [label="age-std <= 0.72\ngini = 0.28\nsamples = 4\nvalue = [1, 5, 0, 0]\nclass = moderate"] ;
111 -> 121 ;
122 [label="gini = 0.0\nsamples = 3\nvalue = [0, 5, 0, 0]\nclass = moderate"] ;
121 -> 122 ;
123 [label="gini = 0.0\nsamples = 1\nvalue = [1, 0, 0, 0]\nclass = extreme"] ;
121 -> 123 ;
124 [label="gini = 0.0\nsamples = 2\nvalue = [0, 0, 4, 0]\nclass = vulnerable"] ;
110 -> 124 ;
125 [label="gini = 0.0\nsamples = 4\nvalue = [0, 7, 0, 0]\nclass = moderate"] ;
109 -> 125 ;
126 [label="escolari-range_ <= 0.31\ngini = 0.69\nsamples = 96\nvalue = [15, 63, 26, 43]\nclass = moderate"] ;
4 -> 126 ;
127 [label="escolari/age-sum <= 0.16\ngini = 0.7\nsamples = 48\nvalue = [7, 17, 18, 29]\nclass = non-vulnerable"] ;
126 -> 127 ;
128 [label="escolari/age-range_ <= 0.38\ngini = 0.64\nsamples = 20\nvalue = [1, 4, 13, 10]\nclass = vulnerable"] ;
127 -> 128 ;
129 [label="gini = 0.0\nsamples = 4\nvalue = [0, 0, 7, 0]\nclass = vulnerable"] ;
128 -> 129 ;
130 [label="escolari/age-sum <= 0.12\ngini = 0.65\nsamples = 16\nvalue = [1, 4, 6, 10]\nclass = non-vulnerable"] ;
128 -> 130 ;
131 [label="gini = 0.0\nsamples = 1\nvalue = [0, 2, 0, 0]\nclass = moderate"] ;
130 -> 131 ;
132 [label="age-std <= 0.49\ngini = 0.61\nsamples = 15\nvalue = [1, 2, 6, 10]\nclass = non-vulnerable"] ;
130 -> 132 ;
133 [label="escolari/age-sum <= 0.15\ngini = 0.48\nsamples = 11\nvalue = [0, 1, 4, 10]\nclass = non-vulnerable"] ;
132 -> 133 ;
134 [label="cielorazo <= 0.5\ngini = 0.28\nsamples = 9\nvalue = [0, 0, 2, 10]\nclass = non-vulnerable"] ;
133 -> 134 ;
135 [label="lugar1 <= 0.5\ngini = 0.35\nsamples = 7\nvalue = [0, 0, 2, 7]\nclass = non-vulnerable"] ;
134 -> 135 ;
136 [label="instlevel2-std <= 0.41\ngini = 0.44\nsamples = 4\nvalue = [0, 0, 2, 4]\nclass = non-vulnerable"] ;
135 -> 136 ;
137 [label="gini = 0.0\nsamples = 1\nvalue = [0, 0, 1, 0]\nclass = vulnerable"] ;
136 -> 137 ;
138 [label="rooms-per-capita <= 0.11\ngini = 0.32\nsamples = 3\nvalue = [0, 0, 1, 4]\nclass = non-vulnerable"] ;
136 -> 138 ;
139 [label="gini = 0.0\nsamples = 1\nvalue = [0, 0, 0, 2]\nclass = non-vulnerable"] ;
138 -> 139 ;
140 [label="r4h3 <= 0.19\ngini = 0.44\nsamples = 2\nvalue = [0, 0, 1, 2]\nclass = non-vulnerable"] ;
138 -> 140 ;
141 [label="gini = 0.0\nsamples = 1\nvalue = [0, 0, 1, 0]\nclass = vulnerable"] ;
140 -> 141 ;
142 [label="gini = 0.0\nsamples = 1\nvalue = [0, 0, 0, 2]\nclass = non-vulnerable"] ;
140 -> 142 ;
143 [label="gini = 0.0\nsamples = 3\nvalue = [0, 0, 0, 3]\nclass = non-vulnerable"] ;
135 -> 143 ;
144 [label="gini = 0.0\nsamples = 2\nvalue = [0, 0, 0, 3]\nclass = non-vulnerable"] ;
134 -> 144 ;
145 [label="escolari-sum <= 0.17\ngini = 0.44\nsamples = 2\nvalue = [0, 1, 2, 0]\nclass = vulnerable"] ;
133 -> 145 ;
146 [label="gini = 0.0\nsamples = 1\nvalue = [0, 0, 2, 0]\nclass = vulnerable"] ;
145 -> 146 ;
147 [label="gini = 0.0\nsamples = 1\nvalue = [0, 1, 0, 0]\nclass = moderate"] ;
145 -> 147 ;
148 [label="overcrowding <= 0.31\ngini = 0.62\nsamples = 4\nvalue = [1, 1, 2, 0]\nclass = vulnerable"] ;
132 -> 148 ;
149 [label="gini = 0.0\nsamples = 2\nvalue = [0, 0, 2, 0]\nclass = vulnerable"] ;
148 -> 149 ;
150 [label="age-range_ <= 0.61\ngini = 0.5\nsamples = 2\nvalue = [1, 1, 0, 0]\nclass = extreme"] ;
148 -> 150 ;
151 [label="gini = 0.0\nsamples = 1\nvalue = [1, 0, 0, 0]\nclass = extreme"] ;
150 -> 151 ;
152 [label="gini = 0.0\nsamples = 1\nvalue = [0, 1, 0, 0]\nclass = moderate"] ;
150 -> 152 ;
153 [label="v2a1 <= 0.01\ngini = 0.68\nsamples = 28\nvalue = [6, 13, 5, 19]\nclass = non-vulnerable"] ;
127 -> 153 ;
154 [label="r4h3 <= 0.31\ngini = 0.71\nsamples = 18\nvalue = [5, 12, 5, 8]\nclass = moderate"] ;
153 -> 154 ;
155 [label="estadocivil7-sum <= 0.25\ngini = 0.64\nsamples = 8\nvalue = [4, 2, 4, 0]\nclass = extreme"] ;
154 -> 155 ;
156 [label="edjefa <= 0.14\ngini = 0.44\nsamples = 5\nvalue = [0, 2, 4, 0]\nclass = vulnerable"] ;
155 -> 156 ;
157 [label="gini = 0.0\nsamples = 3\nvalue = [0, 0, 4, 0]\nclass = vulnerable"] ;
156 -> 157 ;
158 [label="gini = 0.0\nsamples = 2\nvalue = [0, 2, 0, 0]\nclass = moderate"] ;
156 -> 158 ;
159 [label="gini = 0.0\nsamples = 3\nvalue = [4, 0, 0, 0]\nclass = extreme"] ;
155 -> 159 ;
160 [label="rooms-per-capita <= 0.08\ngini = 0.58\nsamples = 10\nvalue = [1, 10, 1, 8]\nclass = moderate"] ;
154 -> 160 ;
161 [label="bedrooms <= 0.21\ngini = 0.4\nsamples = 5\nvalue = [1, 9, 0, 2]\nclass = moderate"] ;
160 -> 161 ;
162 [label="gini = 0.0\nsamples = 3\nvalue = [0, 9, 0, 0]\nclass = moderate"] ;
161 -> 162 ;
163 [label="rooms-per-capita <= 0.04\ngini = 0.44\nsamples = 2\nvalue = [1, 0, 0, 2]\nclass = non-vulnerable"] ;
161 -> 163 ;
164 [label="gini = 0.0\nsamples = 1\nvalue = [1, 0, 0, 0]\nclass = extreme"] ;
163 -> 164 ;
165 [label="gini = 0.0\nsamples = 1\nvalue = [0, 0, 0, 2]\nclass = non-vulnerable"] ;
163 -> 165 ;
166 [label="escolari/age-min <= 0.07\ngini = 0.41\nsamples = 5\nvalue = [0, 1, 1, 6]\nclass = non-vulnerable"] ;
160 -> 166 ;
167 [label="gini = 0.0\nsamples = 1\nvalue = [0, 1, 0, 0]\nclass = moderate"] ;
166 -> 167 ;
168 [label="age-min <= 0.14\ngini = 0.24\nsamples = 4\nvalue = [0, 0, 1, 6]\nclass = non-vulnerable"] ;
166 -> 168 ;
169 [label="gini = 0.0\nsamples = 3\nvalue = [0, 0, 0, 6]\nclass = non-vulnerable"] ;
168 -> 169 ;
170 [label="gini = 0.0\nsamples = 1\nvalue = [0, 0, 1, 0]\nclass = vulnerable"] ;
168 -> 170 ;
171 [label="phones-per-capita <= 0.07\ngini = 0.27\nsamples = 10\nvalue = [1, 1, 0, 11]\nclass = non-vulnerable"] ;
153 -> 171 ;
172 [label="gini = 0.0\nsamples = 1\nvalue = [0, 1, 0, 0]\nclass = moderate"] ;
171 -> 172 ;
173 [label="qmobilephone <= 0.25\ngini = 0.15\nsamples = 9\nvalue = [1, 0, 0, 11]\nclass = non-vulnerable"] ;
171 -> 173 ;
174 [label="escolari-std <= 0.13\ngini = 0.28\nsamples = 5\nvalue = [1, 0, 0, 5]\nclass = non-vulnerable"] ;
173 -> 174 ;
175 [label="gini = 0.0\nsamples = 4\nvalue = [0, 0, 0, 5]\nclass = non-vulnerable"] ;
174 -> 175 ;
176 [label="gini = 0.0\nsamples = 1\nvalue = [1, 0, 0, 0]\nclass = extreme"] ;
174 -> 176 ;
177 [label="gini = 0.0\nsamples = 4\nvalue = [0, 0, 0, 6]\nclass = non-vulnerable"] ;
173 -> 177 ;
178 [label="rooms <= 0.05\ngini = 0.58\nsamples = 48\nvalue = [8, 46, 8, 14]\nclass = moderate"] ;
126 -> 178 ;
179 [label="gini = 0.0\nsamples = 2\nvalue = [4, 0, 0, 0]\nclass = extreme"] ;
178 -> 179 ;
180 [label="instlevel4-std <= 0.56\ngini = 0.54\nsamples = 46\nvalue = [4, 46, 8, 14]\nclass = moderate"] ;
178 -> 180 ;
181 [label="escolari/age-std <= 0.38\ngini = 0.62\nsamples = 5\nvalue = [4, 2, 2, 0]\nclass = extreme"] ;
180 -> 181 ;
182 [label="gini = 0.0\nsamples = 2\nvalue = [0, 2, 0, 0]\nclass = moderate"] ;
181 -> 182 ;
183 [label="hogar_nin <= 0.44\ngini = 0.44\nsamples = 3\nvalue = [4, 0, 2, 0]\nclass = extreme"] ;
181 -> 183 ;
184 [label="gini = 0.0\nsamples = 1\nvalue = [0, 0, 2, 0]\nclass = vulnerable"] ;
183 -> 184 ;
185 [label="gini = 0.0\nsamples = 2\nvalue = [4, 0, 0, 0]\nclass = extreme"] ;
183 -> 185 ;
186 [label="age-std <= 0.3\ngini = 0.47\nsamples = 41\nvalue = [0, 44, 6, 14]\nclass = moderate"] ;
180 -> 186 ;
187 [label="gini = 0.0\nsamples = 6\nvalue = [0, 13, 0, 0]\nclass = moderate"] ;
186 -> 187 ;
188 [label="rent-per-capita <= 0.02\ngini = 0.54\nsamples = 35\nvalue = [0, 31, 6, 14]\nclass = moderate"] ;
186 -> 188 ;
189 [label="walls <= 0.75\ngini = 0.5\nsamples = 31\nvalue = [0, 31, 6, 10]\nclass = moderate"] ;
188 -> 189 ;
190 [label="paredblolad <= 0.5\ngini = 0.41\nsamples = 20\nvalue = [0, 24, 4, 4]\nclass = moderate"] ;
189 -> 190 ;
191 [label="rent-per-capita <= 0.0\ngini = 0.34\nsamples = 18\nvalue = [0, 24, 3, 3]\nclass = moderate"] ;
190 -> 191 ;
192 [label="age-sum <= 0.54\ngini = 0.22\nsamples = 14\nvalue = [0, 21, 0, 3]\nclass = moderate"] ;
191 -> 192 ;
193 [label="inst/age-std <= 0.25\ngini = 0.09\nsamples = 12\nvalue = [0, 21, 0, 1]\nclass = moderate"] ;
192 -> 193 ;
194 [label="instlevel1-sum <= 0.1\ngini = 0.5\nsamples = 2\nvalue = [0, 1, 0, 1]\nclass = moderate"] ;
193 -> 194 ;
195 [label="gini = 0.0\nsamples = 1\nvalue = [0, 1, 0, 0]\nclass = moderate"] ;
194 -> 195 ;
196 [label="gini = 0.0\nsamples = 1\nvalue = [0, 0, 0, 1]\nclass = non-vulnerable"] ;
194 -> 196 ;
197 [label="gini = 0.0\nsamples = 10\nvalue = [0, 20, 0, 0]\nclass = moderate"] ;
193 -> 197 ;
198 [label="gini = 0.0\nsamples = 2\nvalue = [0, 0, 0, 2]\nclass = non-vulnerable"] ;
192 -> 198 ;
199 [label="age-sum <= 0.38\ngini = 0.5\nsamples = 4\nvalue = [0, 3, 3, 0]\nclass = moderate"] ;
191 -> 199 ;
200 [label="gini = 0.0\nsamples = 2\nvalue = [0, 3, 0, 0]\nclass = moderate"] ;
199 -> 200 ;
201 [label="gini = 0.0\nsamples = 2\nvalue = [0, 0, 3, 0]\nclass = vulnerable"] ;
199 -> 201 ;
202 [label="r4m2 <= 0.25\ngini = 0.5\nsamples = 2\nvalue = [0, 0, 1, 1]\nclass = vulnerable"] ;
190 -> 202 ;
203 [label="gini = 0.0\nsamples = 1\nvalue = [0, 0, 1, 0]\nclass = vulnerable"] ;
202 -> 203 ;
204 [label="gini = 0.0\nsamples = 1\nvalue = [0, 0, 0, 1]\nclass = non-vulnerable"] ;
202 -> 204 ;
205 [label="edjefe <= 0.33\ngini = 0.6\nsamples = 11\nvalue = [0, 7, 2, 6]\nclass = moderate"] ;
189 -> 205 ;
206 [label="escolari/age-max <= 0.63\ngini = 0.5\nsamples = 9\nvalue = [0, 6, 0, 6]\nclass = moderate"] ;
205 -> 206 ;
207 [label="age-min <= 0.05\ngini = 0.28\nsamples = 6\nvalue = [0, 1, 0, 5]\nclass = non-vulnerable"] ;
206 -> 207 ;
208 [label="gini = 0.0\nsamples = 4\nvalue = [0, 0, 0, 4]\nclass = non-vulnerable"] ;
207 -> 208 ;
209 [label="inst/age-range_ <= 0.33\ngini = 0.5\nsamples = 2\nvalue = [0, 1, 0, 1]\nclass = moderate"] ;
207 -> 209 ;
210 [label="gini = 0.0\nsamples = 1\nvalue = [0, 0, 0, 1]\nclass = non-vulnerable"] ;
209 -> 210 ;
211 [label="gini = 0.0\nsamples = 1\nvalue = [0, 1, 0, 0]\nclass = moderate"] ;
209 -> 211 ;
212 [label="escolari/age-max <= 0.68\ngini = 0.28\nsamples = 3\nvalue = [0, 5, 0, 1]\nclass = moderate"] ;
206 -> 212 ;
213 [label="gini = 0.0\nsamples = 2\nvalue = [0, 5, 0, 0]\nclass = moderate"] ;
212 -> 213 ;
214 [label="gini = 0.0\nsamples = 1\nvalue = [0, 0, 0, 1]\nclass = non-vulnerable"] ;
212 -> 214 ;
215 [label="inst/age-max <= 0.46\ngini = 0.44\nsamples = 2\nvalue = [0, 1, 2, 0]\nclass = vulnerable"] ;
205 -> 215 ;
216 [label="gini = 0.0\nsamples = 1\nvalue = [0, 0, 2, 0]\nclass = vulnerable"] ;
215 -> 216 ;
217 [label="gini = 0.0\nsamples = 1\nvalue = [0, 1, 0, 0]\nclass = moderate"] ;
215 -> 217 ;
218 [label="gini = 0.0\nsamples = 4\nvalue = [0, 0, 0, 4]\nclass = non-vulnerable"] ;
188 -> 218 ;
219 [label="parentesco3-sum <= 0.25\ngini = 0.7\nsamples = 75\nvalue = [18, 27, 20, 52]\nclass = non-vulnerable"] ;
3 -> 219 ;
220 [label="meaneduc <= 0.2\ngini = 0.62\nsamples = 53\nvalue = [10, 20, 9, 47]\nclass = non-vulnerable"] ;
219 -> 220 ;
221 [label="escolari/age-max <= 0.71\ngini = 0.59\nsamples = 17\nvalue = [0, 15, 4, 10]\nclass = moderate"] ;
220 -> 221 ;
222 [label="overcrowding <= 0.34\ngini = 0.38\nsamples = 8\nvalue = [0, 3, 0, 9]\nclass = non-vulnerable"] ;
221 -> 222 ;
223 [label="gini = 0.0\nsamples = 6\nvalue = [0, 0, 0, 9]\nclass = non-vulnerable"] ;
222 -> 223 ;
224 [label="gini = 0.0\nsamples = 2\nvalue = [0, 3, 0, 0]\nclass = moderate"] ;
222 -> 224 ;
225 [label="rooms-per-capita <= 0.11\ngini = 0.44\nsamples = 9\nvalue = [0, 12, 4, 1]\nclass = moderate"] ;
221 -> 225 ;
226 [label="gini = 0.0\nsamples = 3\nvalue = [0, 0, 4, 0]\nclass = vulnerable"] ;
225 -> 226 ;
227 [label="escolari-min <= 0.07\ngini = 0.14\nsamples = 6\nvalue = [0, 12, 0, 1]\nclass = moderate"] ;
225 -> 227 ;
228 [label="gini = 0.0\nsamples = 1\nvalue = [0, 0, 0, 1]\nclass = non-vulnerable"] ;
227 -> 228 ;
229 [label="gini = 0.0\nsamples = 5\nvalue = [0, 12, 0, 0]\nclass = moderate"] ;
227 -> 229 ;
230 [label="phones-per-capita <= 0.14\ngini = 0.53\nsamples = 36\nvalue = [10, 5, 5, 37]\nclass = non-vulnerable"] ;
220 -> 230 ;
231 [label="instlevel3-std <= 0.72\ngini = 0.72\nsamples = 6\nvalue = [2, 2, 3, 1]\nclass = vulnerable"] ;
230 -> 231 ;
232 [label="bedrooms <= 0.07\ngini = 0.61\nsamples = 5\nvalue = [0, 2, 3, 1]\nclass = vulnerable"] ;
231 -> 232 ;
233 [label="gini = 0.0\nsamples = 1\nvalue = [0, 0, 0, 1]\nclass = non-vulnerable"] ;
232 -> 233 ;
234 [label="bonus <= 0.38\ngini = 0.48\nsamples = 4\nvalue = [0, 2, 3, 0]\nclass = vulnerable"] ;
232 -> 234 ;
235 [label="escolari-min <= 0.02\ngini = 0.44\nsamples = 3\nvalue = [0, 2, 1, 0]\nclass = moderate"] ;
234 -> 235 ;
236 [label="gini = 0.0\nsamples = 2\nvalue = [0, 2, 0, 0]\nclass = moderate"] ;
235 -> 236 ;
237 [label="gini = 0.0\nsamples = 1\nvalue = [0, 0, 1, 0]\nclass = vulnerable"] ;
235 -> 237 ;
238 [label="gini = 0.0\nsamples = 1\nvalue = [0, 0, 2, 0]\nclass = vulnerable"] ;
234 -> 238 ;
239 [label="gini = 0.0\nsamples = 1\nvalue = [2, 0, 0, 0]\nclass = extreme"] ;
231 -> 239 ;
240 [label="inst/age-std <= 0.08\ngini = 0.43\nsamples = 30\nvalue = [8, 3, 2, 36]\nclass = non-vulnerable"] ;
230 -> 240 ;
241 [label="gini = 0.0\nsamples = 2\nvalue = [3, 0, 0, 0]\nclass = extreme"] ;
240 -> 241 ;
242 [label="age-max <= 0.25\ngini = 0.37\nsamples = 28\nvalue = [5, 3, 2, 36]\nclass = non-vulnerable"] ;
240 -> 242 ;
243 [label="escolari/age-sum <= 0.27\ngini = 0.61\nsamples = 11\nvalue = [4, 3, 1, 10]\nclass = non-vulnerable"] ;
242 -> 243 ;
244 [label="escolari/age-range_ <= 0.58\ngini = 0.55\nsamples = 10\nvalue = [2, 3, 1, 10]\nclass = non-vulnerable"] ;
243 -> 244 ;
245 [label="gini = 0.0\nsamples = 4\nvalue = [0, 0, 0, 8]\nclass = non-vulnerable"] ;
244 -> 245 ;
246 [label="escolari/age-range_ <= 0.66\ngini = 0.72\nsamples = 6\nvalue = [2, 3, 1, 2]\nclass = moderate"] ;
244 -> 246 ;
247 [label="walls <= 0.75\ngini = 0.44\nsamples = 2\nvalue = [2, 0, 1, 0]\nclass = extreme"] ;
246 -> 247 ;
248 [label="gini = 0.0\nsamples = 1\nvalue = [2, 0, 0, 0]\nclass = extreme"] ;
247 -> 248 ;
249 [label="gini = 0.0\nsamples = 1\nvalue = [0, 0, 1, 0]\nclass = vulnerable"] ;
247 -> 249 ;
250 [label="phones-per-capita <= 0.29\ngini = 0.48\nsamples = 4\nvalue = [0, 3, 0, 2]\nclass = moderate"] ;
246 -> 250 ;
251 [label="escolari/age-sum <= 0.2\ngini = 0.44\nsamples = 3\nvalue = [0, 1, 0, 2]\nclass = non-vulnerable"] ;
250 -> 251 ;
252 [label="gini = 0.0\nsamples = 1\nvalue = [0, 1, 0, 0]\nclass = moderate"] ;
251 -> 252 ;
253 [label="gini = 0.0\nsamples = 2\nvalue = [0, 0, 0, 2]\nclass = non-vulnerable"] ;
251 -> 253 ;
254 [label="gini = 0.0\nsamples = 1\nvalue = [0, 2, 0, 0]\nclass = moderate"] ;
250 -> 254 ;
255 [label="gini = 0.0\nsamples = 1\nvalue = [2, 0, 0, 0]\nclass = extreme"] ;
243 -> 255 ;
256 [label="instlevel3-sum <= 0.21\ngini = 0.14\nsamples = 17\nvalue = [1, 0, 1, 26]\nclass = non-vulnerable"] ;
242 -> 256 ;
257 [label="gini = 0.0\nsamples = 12\nvalue = [0, 0, 0, 21]\nclass = non-vulnerable"] ;
256 -> 257 ;
258 [label="age-std <= 0.69\ngini = 0.45\nsamples = 5\nvalue = [1, 0, 1, 5]\nclass = non-vulnerable"] ;
256 -> 258 ;
259 [label="edjefa <= 0.14\ngini = 0.28\nsamples = 4\nvalue = [0, 0, 1, 5]\nclass = non-vulnerable"] ;
258 -> 259 ;
260 [label="gini = 0.0\nsamples = 3\nvalue = [0, 0, 0, 5]\nclass = non-vulnerable"] ;
259 -> 260 ;
261 [label="gini = 0.0\nsamples = 1\nvalue = [0, 0, 1, 0]\nclass = vulnerable"] ;
259 -> 261 ;
262 [label="gini = 0.0\nsamples = 1\nvalue = [1, 0, 0, 0]\nclass = extreme"] ;
258 -> 262 ;
263 [label="inst/age-std <= 0.39\ngini = 0.73\nsamples = 22\nvalue = [8, 7, 11, 5]\nclass = vulnerable"] ;
219 -> 263 ;
264 [label="instlevel4-std <= 0.6\ngini = 0.67\nsamples = 17\nvalue = [1, 6, 10, 5]\nclass = vulnerable"] ;
263 -> 264 ;
265 [label="inst-std <= 0.25\ngini = 0.54\nsamples = 9\nvalue = [1, 6, 3, 0]\nclass = moderate"] ;
264 -> 265 ;
266 [label="gini = 0.0\nsamples = 2\nvalue = [0, 0, 2, 0]\nclass = vulnerable"] ;
265 -> 266 ;
267 [label="escolari-std <= 0.28\ngini = 0.41\nsamples = 7\nvalue = [1, 6, 1, 0]\nclass = moderate"] ;
265 -> 267 ;
268 [label="gini = 0.0\nsamples = 1\nvalue = [1, 0, 0, 0]\nclass = extreme"] ;
267 -> 268 ;
269 [label="age-min <= 0.02\ngini = 0.24\nsamples = 6\nvalue = [0, 6, 1, 0]\nclass = moderate"] ;
267 -> 269 ;
270 [label="gini = 0.0\nsamples = 1\nvalue = [0, 0, 1, 0]\nclass = vulnerable"] ;
269 -> 270 ;
271 [label="gini = 0.0\nsamples = 5\nvalue = [0, 6, 0, 0]\nclass = moderate"] ;
269 -> 271 ;
272 [label="inst-max <= 0.56\ngini = 0.49\nsamples = 8\nvalue = [0, 0, 7, 5]\nclass = vulnerable"] ;
264 -> 272 ;
273 [label="inst/age-range_ <= 0.3\ngini = 0.49\nsamples = 7\nvalue = [0, 0, 4, 5]\nclass = non-vulnerable"] ;
272 -> 273 ;
274 [label="gini = 0.0\nsamples = 2\nvalue = [0, 0, 3, 0]\nclass = vulnerable"] ;
273 -> 274 ;
275 [label="lugar1 <= 0.5\ngini = 0.28\nsamples = 5\nvalue = [0, 0, 1, 5]\nclass = non-vulnerable"] ;
273 -> 275 ;
276 [label="dependency <= 0.09\ngini = 0.44\nsamples = 3\nvalue = [0, 0, 1, 2]\nclass = non-vulnerable"] ;
275 -> 276 ;
277 [label="gini = 0.0\nsamples = 1\nvalue = [0, 0, 1, 0]\nclass = vulnerable"] ;
276 -> 277 ;
278 [label="gini = 0.0\nsamples = 2\nvalue = [0, 0, 0, 2]\nclass = non-vulnerable"] ;
276 -> 278 ;
279 [label="gini = 0.0\nsamples = 2\nvalue = [0, 0, 0, 3]\nclass = non-vulnerable"] ;
275 -> 279 ;
280 [label="gini = 0.0\nsamples = 1\nvalue = [0, 0, 3, 0]\nclass = vulnerable"] ;
272 -> 280 ;
281 [label="bonus <= 0.38\ngini = 0.37\nsamples = 5\nvalue = [7, 1, 1, 0]\nclass = extreme"] ;
263 -> 281 ;
282 [label="gini = 0.0\nsamples = 3\nvalue = [7, 0, 0, 0]\nclass = extreme"] ;
281 -> 282 ;
283 [label="tech-sum <= 0.52\ngini = 0.5\nsamples = 2\nvalue = [0, 1, 1, 0]\nclass = moderate"] ;
281 -> 283 ;
284 [label="gini = 0.0\nsamples = 1\nvalue = [0, 0, 1, 0]\nclass = vulnerable"] ;
283 -> 284 ;
285 [label="gini = 0.0\nsamples = 1\nvalue = [0, 1, 0, 0]\nclass = moderate"] ;
283 -> 285 ;
286 [label="dependency <= 0.15\ngini = 0.65\nsamples = 369\nvalue = [53, 118, 113, 301]\nclass = non-vulnerable"] ;
2 -> 286 ;
287 [label="escolari/age-std <= 0.35\ngini = 0.57\nsamples = 257\nvalue = [20, 62, 80, 244]\nclass = non-vulnerable"] ;
286 -> 287 ;
288 [label="r4m2 <= 0.75\ngini = 0.44\nsamples = 97\nvalue = [7, 15, 19, 111]\nclass = non-vulnerable"] ;
287 -> 288 ;
289 [label="age-std <= 0.52\ngini = 0.42\nsamples = 95\nvalue = [5, 15, 18, 111]\nclass = non-vulnerable"] ;
288 -> 289 ;
290 [label="age-range_ <= 0.36\ngini = 0.35\nsamples = 78\nvalue = [4, 12, 10, 100]\nclass = non-vulnerable"] ;
289 -> 290 ;
291 [label="rent-per-capita <= 0.01\ngini = 0.51\nsamples = 47\nvalue = [4, 11, 9, 48]\nclass = non-vulnerable"] ;
290 -> 291 ;
292 [label="age-sum <= 0.17\ngini = 0.65\nsamples = 20\nvalue = [2, 10, 4, 14]\nclass = non-vulnerable"] ;
291 -> 292 ;
293 [label="escolari-max <= 0.36\ngini = 0.54\nsamples = 13\nvalue = [1, 10, 0, 9]\nclass = moderate"] ;
292 -> 293 ;
294 [label="parentesco2-std <= 0.35\ngini = 0.43\nsamples = 7\nvalue = [1, 8, 0, 2]\nclass = moderate"] ;
293 -> 294 ;
295 [label="rooms <= 0.55\ngini = 0.5\nsamples = 2\nvalue = [1, 0, 0, 1]\nclass = extreme"] ;
294 -> 295 ;
296 [label="gini = 0.0\nsamples = 1\nvalue = [1, 0, 0, 0]\nclass = extreme"] ;
295 -> 296 ;
297 [label="gini = 0.0\nsamples = 1\nvalue = [0, 0, 0, 1]\nclass = non-vulnerable"] ;
295 -> 297 ;
298 [label="escolari/age-max <= 0.28\ngini = 0.2\nsamples = 5\nvalue = [0, 8, 0, 1]\nclass = moderate"] ;
294 -> 298 ;
299 [label="gini = 0.0\nsamples = 1\nvalue = [0, 0, 0, 1]\nclass = non-vulnerable"] ;
298 -> 299 ;
300 [label="gini = 0.0\nsamples = 4\nvalue = [0, 8, 0, 0]\nclass = moderate"] ;
298 -> 300 ;
301 [label="meaneduc <= 0.26\ngini = 0.35\nsamples = 6\nvalue = [0, 2, 0, 7]\nclass = non-vulnerable"] ;
293 -> 301 ;
302 [label="gini = 0.0\nsamples = 4\nvalue = [0, 0, 0, 7]\nclass = non-vulnerable"] ;
301 -> 302 ;
303 [label="gini = 0.0\nsamples = 2\nvalue = [0, 2, 0, 0]\nclass = moderate"] ;
301 -> 303 ;
304 [label="instlevel3-std <= 0.6\ngini = 0.58\nsamples = 7\nvalue = [1, 0, 4, 5]\nclass = non-vulnerable"] ;
292 -> 304 ;
305 [label="gini = 0.0\nsamples = 2\nvalue = [0, 0, 0, 4]\nclass = non-vulnerable"] ;
304 -> 305 ;
306 [label="bonus <= 0.5\ngini = 0.5\nsamples = 5\nvalue = [1, 0, 4, 1]\nclass = vulnerable"] ;
304 -> 306 ;
307 [label="age-sum <= 0.21\ngini = 0.32\nsamples = 4\nvalue = [0, 0, 4, 1]\nclass = vulnerable"] ;
306 -> 307 ;
308 [label="gini = 0.0\nsamples = 2\nvalue = [0, 0, 3, 0]\nclass = vulnerable"] ;
307 -> 308 ;
309 [label="bedrooms <= 0.21\ngini = 0.5\nsamples = 2\nvalue = [0, 0, 1, 1]\nclass = vulnerable"] ;
307 -> 309 ;
310 [label="gini = 0.0\nsamples = 1\nvalue = [0, 0, 0, 1]\nclass = non-vulnerable"] ;
309 -> 310 ;
311 [label="gini = 0.0\nsamples = 1\nvalue = [0, 0, 1, 0]\nclass = vulnerable"] ;
309 -> 311 ;
312 [label="gini = 0.0\nsamples = 1\nvalue = [1, 0, 0, 0]\nclass = extreme"] ;
306 -> 312 ;
313 [label="inst/age-range_ <= 0.12\ngini = 0.33\nsamples = 27\nvalue = [2, 1, 5, 34]\nclass = non-vulnerable"] ;
291 -> 313 ;
314 [label="inst/age-max <= 0.17\ngini = 0.66\nsamples = 6\nvalue = [2, 0, 3, 3]\nclass = vulnerable"] ;
313 -> 314 ;
315 [label="gini = 0.0\nsamples = 2\nvalue = [2, 0, 0, 0]\nclass = extreme"] ;
314 -> 315 ;
316 [label="inst/age-std <= 0.04\ngini = 0.5\nsamples = 4\nvalue = [0, 0, 3, 3]\nclass = vulnerable"] ;
314 -> 316 ;
317 [label="gini = 0.0\nsamples = 1\nvalue = [0, 0, 0, 2]\nclass = non-vulnerable"] ;
316 -> 317 ;
318 [label="escolari/age-range_ <= 0.32\ngini = 0.38\nsamples = 3\nvalue = [0, 0, 3, 1]\nclass = vulnerable"] ;
316 -> 318 ;
319 [label="gini = 0.0\nsamples = 2\nvalue = [0, 0, 3, 0]\nclass = vulnerable"] ;
318 -> 319 ;
320 [label="gini = 0.0\nsamples = 1\nvalue = [0, 0, 0, 1]\nclass = non-vulnerable"] ;
318 -> 320 ;
321 [label="lugar1 <= 0.5\ngini = 0.16\nsamples = 21\nvalue = [0, 1, 2, 31]\nclass = non-vulnerable"] ;
313 -> 321 ;
322 [label="age-min <= 0.11\ngini = 0.32\nsamples = 6\nvalue = [0, 0, 2, 8]\nclass = non-vulnerable"] ;
321 -> 322 ;
323 [label="estadocivil7-std <= 0.35\ngini = 0.44\nsamples = 2\nvalue = [0, 0, 2, 1]\nclass = vulnerable"] ;
322 -> 323 ;
324 [label="gini = 0.0\nsamples = 1\nvalue = [0, 0, 0, 1]\nclass = non-vulnerable"] ;
323 -> 324 ;
325 [label="gini = 0.0\nsamples = 1\nvalue = [0, 0, 2, 0]\nclass = vulnerable"] ;
323 -> 325 ;
326 [label="gini = 0.0\nsamples = 4\nvalue = [0, 0, 0, 7]\nclass = non-vulnerable"] ;
322 -> 326 ;
327 [label="paredblolad <= 0.5\ngini = 0.08\nsamples = 15\nvalue = [0, 1, 0, 23]\nclass = non-vulnerable"] ;
321 -> 327 ;
328 [label="inst/age-std <= 0.18\ngini = 0.28\nsamples = 2\nvalue = [0, 1, 0, 5]\nclass = non-vulnerable"] ;
327 -> 328 ;
329 [label="gini = 0.0\nsamples = 1\nvalue = [0, 0, 0, 5]\nclass = non-vulnerable"] ;
328 -> 329 ;
330 [label="gini = 0.0\nsamples = 1\nvalue = [0, 1, 0, 0]\nclass = moderate"] ;
328 -> 330 ;
331 [label="gini = 0.0\nsamples = 13\nvalue = [0, 0, 0, 18]\nclass = non-vulnerable"] ;
327 -> 331 ;
332 [label="inst/age-std <= 0.11\ngini = 0.07\nsamples = 31\nvalue = [0, 1, 1, 52]\nclass = non-vulnerable"] ;
290 -> 332 ;
333 [label="age-min <= 0.09\ngini = 0.5\nsamples = 2\nvalue = [0, 1, 0, 1]\nclass = moderate"] ;
332 -> 333 ;
334 [label="gini = 0.0\nsamples = 1\nvalue = [0, 1, 0, 0]\nclass = moderate"] ;
333 -> 334 ;
335 [label="gini = 0.0\nsamples = 1\nvalue = [0, 0, 0, 1]\nclass = non-vulnerable"] ;
333 -> 335 ;
336 [label="rooms <= 0.45\ngini = 0.04\nsamples = 29\nvalue = [0, 0, 1, 51]\nclass = non-vulnerable"] ;
332 -> 336 ;
337 [label="gini = 0.0\nsamples = 24\nvalue = [0, 0, 0, 44]\nclass = non-vulnerable"] ;
336 -> 337 ;
338 [label="inst/age-range_ <= 0.25\ngini = 0.22\nsamples = 5\nvalue = [0, 0, 1, 7]\nclass = non-vulnerable"] ;
336 -> 338 ;
339 [label="gini = 0.0\nsamples = 1\nvalue = [0, 0, 1, 0]\nclass = vulnerable"] ;
338 -> 339 ;
340 [label="gini = 0.0\nsamples = 4\nvalue = [0, 0, 0, 7]\nclass = non-vulnerable"] ;
338 -> 340 ;
341 [label="escolari/age-sum <= 0.12\ngini = 0.63\nsamples = 17\nvalue = [1, 3, 8, 11]\nclass = non-vulnerable"] ;
289 -> 341 ;
342 [label="escolari-sum <= 0.21\ngini = 0.65\nsamples = 13\nvalue = [1, 3, 8, 4]\nclass = vulnerable"] ;
341 -> 342 ;
343 [label="age-max <= 0.5\ngini = 0.6\nsamples = 12\nvalue = [0, 3, 8, 4]\nclass = vulnerable"] ;
342 -> 343 ;
344 [label="escolari/age-std <= 0.2\ngini = 0.64\nsamples = 7\nvalue = [0, 3, 2, 4]\nclass = non-vulnerable"] ;
343 -> 344 ;
345 [label="gini = 0.0\nsamples = 2\nvalue = [0, 0, 0, 3]\nclass = non-vulnerable"] ;
344 -> 345 ;
346 [label="escolari/age-range_ <= 0.28\ngini = 0.61\nsamples = 5\nvalue = [0, 3, 2, 1]\nclass = moderate"] ;
344 -> 346 ;
347 [label="gini = 0.0\nsamples = 2\nvalue = [0, 3, 0, 0]\nclass = moderate"] ;
346 -> 347 ;
348 [label="inst/age-range_ <= 0.23\ngini = 0.44\nsamples = 3\nvalue = [0, 0, 2, 1]\nclass = vulnerable"] ;
346 -> 348 ;
349 [label="gini = 0.0\nsamples = 1\nvalue = [0, 0, 0, 1]\nclass = non-vulnerable"] ;
348 -> 349 ;
350 [label="gini = 0.0\nsamples = 2\nvalue = [0, 0, 2, 0]\nclass = vulnerable"] ;
348 -> 350 ;
351 [label="gini = 0.0\nsamples = 5\nvalue = [0, 0, 6, 0]\nclass = vulnerable"] ;
343 -> 351 ;
352 [label="gini = 0.0\nsamples = 1\nvalue = [1, 0, 0, 0]\nclass = extreme"] ;
342 -> 352 ;
353 [label="gini = 0.0\nsamples = 4\nvalue = [0, 0, 0, 7]\nclass = non-vulnerable"] ;
341 -> 353 ;
354 [label="edjefe <= 0.17\ngini = 0.44\nsamples = 2\nvalue = [2, 0, 1, 0]\nclass = extreme"] ;
288 -> 354 ;
355 [label="gini = 0.0\nsamples = 1\nvalue = [0, 0, 1, 0]\nclass = vulnerable"] ;
354 -> 355 ;
356 [label="gini = 0.0\nsamples = 1\nvalue = [2, 0, 0, 0]\nclass = extreme"] ;
354 -> 356 ;
357 [label="age-max <= 0.45\ngini = 0.63\nsamples = 160\nvalue = [13, 47, 61, 133]\nclass = non-vulnerable"] ;
287 -> 357 ;
358 [label="floor <= 0.75\ngini = 0.53\nsamples = 107\nvalue = [6, 17, 35, 102]\nclass = non-vulnerable"] ;
357 -> 358 ;
359 [label="edjefe <= 0.4\ngini = 0.59\nsamples = 29\nvalue = [0, 5, 20, 22]\nclass = non-vulnerable"] ;
358 -> 359 ;
360 [label="edjefa <= 0.14\ngini = 0.55\nsamples = 24\nvalue = [0, 3, 20, 13]\nclass = vulnerable"] ;
359 -> 360 ;
361 [label="meaneduc <= 0.17\ngini = 0.44\nsamples = 15\nvalue = [0, 2, 15, 4]\nclass = vulnerable"] ;
360 -> 361 ;
362 [label="escolari-std <= 0.08\ngini = 0.61\nsamples = 5\nvalue = [0, 1, 2, 3]\nclass = non-vulnerable"] ;
361 -> 362 ;
363 [label="gini = 0.0\nsamples = 1\nvalue = [0, 1, 0, 0]\nclass = moderate"] ;
362 -> 363 ;
364 [label="dependency <= 0.05\ngini = 0.48\nsamples = 4\nvalue = [0, 0, 2, 3]\nclass = non-vulnerable"] ;
362 -> 364 ;
365 [label="gini = 0.0\nsamples = 1\nvalue = [0, 0, 2, 0]\nclass = vulnerable"] ;
364 -> 365 ;
366 [label="gini = 0.0\nsamples = 3\nvalue = [0, 0, 0, 3]\nclass = non-vulnerable"] ;
364 -> 366 ;
367 [label="meaneduc <= 0.34\ngini = 0.24\nsamples = 10\nvalue = [0, 1, 13, 1]\nclass = vulnerable"] ;
361 -> 367 ;
368 [label="age-sum <= 0.13\ngini = 0.13\nsamples = 9\nvalue = [0, 1, 13, 0]\nclass = vulnerable"] ;
367 -> 368 ;
369 [label="escolari-range_ <= 0.48\ngini = 0.44\nsamples = 2\nvalue = [0, 1, 2, 0]\nclass = vulnerable"] ;
368 -> 369 ;
370 [label="gini = 0.0\nsamples = 1\nvalue = [0, 0, 2, 0]\nclass = vulnerable"] ;
369 -> 370 ;
371 [label="gini = 0.0\nsamples = 1\nvalue = [0, 1, 0, 0]\nclass = moderate"] ;
369 -> 371 ;
372 [label="gini = 0.0\nsamples = 7\nvalue = [0, 0, 11, 0]\nclass = vulnerable"] ;
368 -> 372 ;
373 [label="gini = 0.0\nsamples = 1\nvalue = [0, 0, 0, 1]\nclass = non-vulnerable"] ;
367 -> 373 ;
374 [label="escolari-range_ <= 0.36\ngini = 0.52\nsamples = 9\nvalue = [0, 1, 5, 9]\nclass = non-vulnerable"] ;
360 -> 374 ;
375 [label="meaneduc <= 0.25\ngini = 0.57\nsamples = 4\nvalue = [0, 1, 5, 3]\nclass = vulnerable"] ;
374 -> 375 ;
376 [label="age-max <= 0.22\ngini = 0.28\nsamples = 3\nvalue = [0, 1, 5, 0]\nclass = vulnerable"] ;
375 -> 376 ;
377 [label="gini = 0.0\nsamples = 1\nvalue = [0, 1, 0, 0]\nclass = moderate"] ;
376 -> 377 ;
378 [label="gini = 0.0\nsamples = 2\nvalue = [0, 0, 5, 0]\nclass = vulnerable"] ;
376 -> 378 ;
379 [label="gini = 0.0\nsamples = 1\nvalue = [0, 0, 0, 3]\nclass = non-vulnerable"] ;
375 -> 379 ;
380 [label="gini = 0.0\nsamples = 5\nvalue = [0, 0, 0, 6]\nclass = non-vulnerable"] ;
374 -> 380 ;
381 [label="escolari-std <= 0.11\ngini = 0.3\nsamples = 5\nvalue = [0, 2, 0, 9]\nclass = non-vulnerable"] ;
359 -> 381 ;
382 [label="gini = 0.0\nsamples = 1\nvalue = [0, 2, 0, 0]\nclass = moderate"] ;
381 -> 382 ;
383 [label="gini = 0.0\nsamples = 4\nvalue = [0, 0, 0, 9]\nclass = non-vulnerable"] ;
381 -> 383 ;
384 [label="rooms-per-capita <= 0.08\ngini = 0.47\nsamples = 78\nvalue = [6, 12, 15, 80]\nclass = non-vulnerable"] ;
358 -> 384 ;
385 [label="escolari/age-max <= 0.76\ngini = 0.6\nsamples = 9\nvalue = [1, 1, 8, 5]\nclass = vulnerable"] ;
384 -> 385 ;
386 [label="escolari-std <= 0.26\ngini = 0.51\nsamples = 7\nvalue = [1, 1, 8, 2]\nclass = vulnerable"] ;
385 -> 386 ;
387 [label="dependency <= 0.1\ngini = 0.2\nsamples = 4\nvalue = [0, 1, 8, 0]\nclass = vulnerable"] ;
386 -> 387 ;
388 [label="gini = 0.0\nsamples = 1\nvalue = [0, 1, 0, 0]\nclass = moderate"] ;
387 -> 388 ;
389 [label="gini = 0.0\nsamples = 3\nvalue = [0, 0, 8, 0]\nclass = vulnerable"] ;
387 -> 389 ;
390 [label="inst/age-range_ <= 0.37\ngini = 0.44\nsamples = 3\nvalue = [1, 0, 0, 2]\nclass = non-vulnerable"] ;
386 -> 390 ;
391 [label="gini = 0.0\nsamples = 1\nvalue = [1, 0, 0, 0]\nclass = extreme"] ;
390 -> 391 ;
392 [label="gini = 0.0\nsamples = 2\nvalue = [0, 0, 0, 2]\nclass = non-vulnerable"] ;
390 -> 392 ;
393 [label="gini = 0.0\nsamples = 2\nvalue = [0, 0, 0, 3]\nclass = non-vulnerable"] ;
385 -> 393 ;
394 [label="inst-max <= 0.31\ngini = 0.39\nsamples = 69\nvalue = [5, 11, 7, 75]\nclass = non-vulnerable"] ;
384 -> 394 ;
395 [label="escolari-sum <= 0.11\ngini = 0.72\nsamples = 5\nvalue = [2, 1, 1, 1]\nclass = extreme"] ;
394 -> 395 ;
396 [label="gini = 0.0\nsamples = 2\nvalue = [2, 0, 0, 0]\nclass = extreme"] ;
395 -> 396 ;
397 [label="inst/age-std <= 0.24\ngini = 0.67\nsamples = 3\nvalue = [0, 1, 1, 1]\nclass = moderate"] ;
395 -> 397 ;
398 [label="gini = 0.0\nsamples = 1\nvalue = [0, 0, 1, 0]\nclass = vulnerable"] ;
397 -> 398 ;
399 [label="lugar1 <= 0.5\ngini = 0.5\nsamples = 2\nvalue = [0, 1, 0, 1]\nclass = moderate"] ;
397 -> 399 ;
400 [label="gini = 0.0\nsamples = 1\nvalue = [0, 0, 0, 1]\nclass = non-vulnerable"] ;
399 -> 400 ;
401 [label="gini = 0.0\nsamples = 1\nvalue = [0, 1, 0, 0]\nclass = moderate"] ;
399 -> 401 ;
402 [label="inst-std <= 0.36\ngini = 0.35\nsamples = 64\nvalue = [3, 10, 6, 74]\nclass = non-vulnerable"] ;
394 -> 402 ;
403 [label="rooms-per-capita <= 0.14\ngini = 0.42\nsamples = 51\nvalue = [3, 10, 5, 52]\nclass = non-vulnerable"] ;
402 -> 403 ;
404 [label="overcrowding <= 0.28\ngini = 0.53\nsamples = 34\nvalue = [3, 10, 3, 29]\nclass = non-vulnerable"] ;
403 -> 404 ;
405 [label="escolari/age-std <= 0.35\ngini = 0.39\nsamples = 24\nvalue = [1, 3, 3, 23]\nclass = non-vulnerable"] ;
404 -> 405 ;
406 [label="gini = 0.0\nsamples = 1\nvalue = [0, 0, 1, 0]\nclass = vulnerable"] ;
405 -> 406 ;
407 [label="age-max <= 0.14\ngini = 0.35\nsamples = 23\nvalue = [1, 3, 2, 23]\nclass = non-vulnerable"] ;
405 -> 407 ;
408 [label="gini = 0.0\nsamples = 1\nvalue = [0, 0, 1, 0]\nclass = vulnerable"] ;
407 -> 408 ;
409 [label="inst-range_ <= 0.25\ngini = 0.31\nsamples = 22\nvalue = [1, 3, 1, 23]\nclass = non-vulnerable"] ;
407 -> 409 ;
410 [label="escolari-sum <= 0.21\ngini = 0.41\nsamples = 5\nvalue = [0, 2, 0, 5]\nclass = non-vulnerable"] ;
409 -> 410 ;
411 [label="gini = 0.0\nsamples = 3\nvalue = [0, 0, 0, 5]\nclass = non-vulnerable"] ;
410 -> 411 ;
412 [label="gini = 0.0\nsamples = 2\nvalue = [0, 2, 0, 0]\nclass = moderate"] ;
410 -> 412 ;
413 [label="escolari/age-sum <= 0.09\ngini = 0.26\nsamples = 17\nvalue = [1, 1, 1, 18]\nclass = non-vulnerable"] ;
409 -> 413 ;
414 [label="gini = 0.0\nsamples = 1\nvalue = [0, 0, 1, 0]\nclass = vulnerable"] ;
413 -> 414 ;
415 [label="escolari/age-range_ <= 0.57\ngini = 0.19\nsamples = 16\nvalue = [1, 1, 0, 18]\nclass = non-vulnerable"] ;
413 -> 415 ;
416 [label="gini = 0.0\nsamples = 7\nvalue = [0, 0, 0, 9]\nclass = non-vulnerable"] ;
415 -> 416 ;
417 [label="estadocivil7-std <= 0.35\ngini = 0.31\nsamples = 9\nvalue = [1, 1, 0, 9]\nclass = non-vulnerable"] ;
415 -> 417 ;
418 [label="gini = 0.0\nsamples = 1\nvalue = [1, 0, 0, 0]\nclass = extreme"] ;
417 -> 418 ;
419 [label="instlevel4-std <= 0.29\ngini = 0.18\nsamples = 8\nvalue = [0, 1, 0, 9]\nclass = non-vulnerable"] ;
417 -> 419 ;
420 [label="parentesco2-std <= 0.67\ngini = 0.5\nsamples = 2\nvalue = [0, 1, 0, 1]\nclass = moderate"] ;
419 -> 420 ;
421 [label="gini = 0.0\nsamples = 1\nvalue = [0, 0, 0, 1]\nclass = non-vulnerable"] ;
420 -> 421 ;
422 [label="gini = 0.0\nsamples = 1\nvalue = [0, 1, 0, 0]\nclass = moderate"] ;
420 -> 422 ;
423 [label="gini = 0.0\nsamples = 6\nvalue = [0, 0, 0, 8]\nclass = non-vulnerable"] ;
419 -> 423 ;
424 [label="phones-per-capita <= 0.29\ngini = 0.6\nsamples = 10\nvalue = [2, 7, 0, 6]\nclass = moderate"] ;
404 -> 424 ;
425 [label="escolari/age-max <= 0.56\ngini = 0.6\nsamples = 7\nvalue = [2, 3, 0, 6]\nclass = non-vulnerable"] ;
424 -> 425 ;
426 [label="inst/age-range_ <= 0.32\ngini = 0.61\nsamples = 5\nvalue = [2, 3, 0, 1]\nclass = moderate"] ;
425 -> 426 ;
427 [label="gini = 0.0\nsamples = 2\nvalue = [2, 0, 0, 0]\nclass = extreme"] ;
426 -> 427 ;
428 [label="age-sum <= 0.15\ngini = 0.38\nsamples = 3\nvalue = [0, 3, 0, 1]\nclass = moderate"] ;
426 -> 428 ;
429 [label="gini = 0.0\nsamples = 1\nvalue = [0, 0, 0, 1]\nclass = non-vulnerable"] ;
428 -> 429 ;
430 [label="gini = 0.0\nsamples = 2\nvalue = [0, 3, 0, 0]\nclass = moderate"] ;
428 -> 430 ;
431 [label="gini = 0.0\nsamples = 2\nvalue = [0, 0, 0, 5]\nclass = non-vulnerable"] ;
425 -> 431 ;
432 [label="gini = 0.0\nsamples = 3\nvalue = [0, 4, 0, 0]\nclass = moderate"] ;
424 -> 432 ;
433 [label="age-std <= 0.38\ngini = 0.15\nsamples = 17\nvalue = [0, 0, 2, 23]\nclass = non-vulnerable"] ;
403 -> 433 ;
434 [label="escolari/age-min <= 0.15\ngini = 0.38\nsamples = 8\nvalue = [0, 0, 2, 6]\nclass = non-vulnerable"] ;
433 -> 434 ;
435 [label="gini = 0.0\nsamples = 4\nvalue = [0, 0, 0, 4]\nclass = non-vulnerable"] ;
434 -> 435 ;
436 [label="meaneduc <= 0.26\ngini = 0.5\nsamples = 4\nvalue = [0, 0, 2, 2]\nclass = vulnerable"] ;
434 -> 436 ;
437 [label="gini = 0.0\nsamples = 2\nvalue = [0, 0, 2, 0]\nclass = vulnerable"] ;
436 -> 437 ;
438 [label="gini = 0.0\nsamples = 2\nvalue = [0, 0, 0, 2]\nclass = non-vulnerable"] ;
436 -> 438 ;
439 [label="gini = 0.0\nsamples = 9\nvalue = [0, 0, 0, 17]\nclass = non-vulnerable"] ;
433 -> 439 ;
440 [label="escolari/age-max <= 0.5\ngini = 0.08\nsamples = 13\nvalue = [0, 0, 1, 22]\nclass = non-vulnerable"] ;
402 -> 440 ;
441 [label="edjefa <= 0.19\ngini = 0.28\nsamples = 4\nvalue = [0, 0, 1, 5]\nclass = non-vulnerable"] ;
440 -> 441 ;
442 [label="gini = 0.0\nsamples = 1\nvalue = [0, 0, 1, 0]\nclass = vulnerable"] ;
441 -> 442 ;
443 [label="gini = 0.0\nsamples = 3\nvalue = [0, 0, 0, 5]\nclass = non-vulnerable"] ;
441 -> 443 ;
444 [label="gini = 0.0\nsamples = 9\nvalue = [0, 0, 0, 17]\nclass = non-vulnerable"] ;
440 -> 444 ;
445 [label="phones-per-capita <= 0.26\ngini = 0.71\nsamples = 53\nvalue = [7, 30, 26, 31]\nclass = non-vulnerable"] ;
357 -> 445 ;
446 [label="inst-std <= 0.24\ngini = 0.69\nsamples = 34\nvalue = [5, 26, 15, 13]\nclass = moderate"] ;
445 -> 446 ;
447 [label="escolari-min <= 0.02\ngini = 0.68\nsamples = 15\nvalue = [1, 6, 8, 10]\nclass = non-vulnerable"] ;
446 -> 447 ;
448 [label="inst-std <= 0.21\ngini = 0.41\nsamples = 5\nvalue = [1, 0, 6, 1]\nclass = vulnerable"] ;
447 -> 448 ;
449 [label="escolari/age-std <= 0.46\ngini = 0.5\nsamples = 2\nvalue = [1, 0, 0, 1]\nclass = extreme"] ;
448 -> 449 ;
450 [label="gini = 0.0\nsamples = 1\nvalue = [0, 0, 0, 1]\nclass = non-vulnerable"] ;
449 -> 450 ;
451 [label="gini = 0.0\nsamples = 1\nvalue = [1, 0, 0, 0]\nclass = extreme"] ;
449 -> 451 ;
452 [label="gini = 0.0\nsamples = 3\nvalue = [0, 0, 6, 0]\nclass = vulnerable"] ;
448 -> 452 ;
453 [label="inst/age-range_ <= 0.37\ngini = 0.58\nsamples = 10\nvalue = [0, 6, 2, 9]\nclass = non-vulnerable"] ;
447 -> 453 ;
454 [label="gini = 0.0\nsamples = 3\nvalue = [0, 0, 0, 7]\nclass = non-vulnerable"] ;
453 -> 454 ;
455 [label="r4h3 <= 0.56\ngini = 0.56\nsamples = 7\nvalue = [0, 6, 2, 2]\nclass = moderate"] ;
453 -> 455 ;
456 [label="r4h2 <= 0.44\ngini = 0.38\nsamples = 6\nvalue = [0, 6, 0, 2]\nclass = moderate"] ;
455 -> 456 ;
457 [label="instlevel3-std <= 0.77\ngini = 0.24\nsamples = 5\nvalue = [0, 6, 0, 1]\nclass = moderate"] ;
456 -> 457 ;
458 [label="gini = 0.0\nsamples = 3\nvalue = [0, 4, 0, 0]\nclass = moderate"] ;
457 -> 458 ;
459 [label="bedrooms <= 0.36\ngini = 0.44\nsamples = 2\nvalue = [0, 2, 0, 1]\nclass = moderate"] ;
457 -> 459 ;
460 [label="gini = 0.0\nsamples = 1\nvalue = [0, 0, 0, 1]\nclass = non-vulnerable"] ;
459 -> 460 ;
461 [label="gini = 0.0\nsamples = 1\nvalue = [0, 2, 0, 0]\nclass = moderate"] ;
459 -> 461 ;
462 [label="gini = 0.0\nsamples = 1\nvalue = [0, 0, 0, 1]\nclass = non-vulnerable"] ;
456 -> 462 ;
463 [label="gini = 0.0\nsamples = 1\nvalue = [0, 0, 2, 0]\nclass = vulnerable"] ;
455 -> 463 ;
464 [label="age-min <= 0.18\ngini = 0.59\nsamples = 19\nvalue = [4, 20, 7, 3]\nclass = moderate"] ;
446 -> 464 ;
465 [label="edjefe <= 0.48\ngini = 0.49\nsamples = 18\nvalue = [0, 20, 7, 3]\nclass = moderate"] ;
464 -> 465 ;
466 [label="tech-sum <= 0.16\ngini = 0.35\nsamples = 15\nvalue = [0, 19, 2, 3]\nclass = moderate"] ;
465 -> 466 ;
467 [label="age-sum <= 0.21\ngini = 0.44\nsamples = 3\nvalue = [0, 1, 2, 0]\nclass = vulnerable"] ;
466 -> 467 ;
468 [label="gini = 0.0\nsamples = 1\nvalue = [0, 1, 0, 0]\nclass = moderate"] ;
467 -> 468 ;
469 [label="gini = 0.0\nsamples = 2\nvalue = [0, 0, 2, 0]\nclass = vulnerable"] ;
467 -> 469 ;
470 [label="inst-std <= 0.36\ngini = 0.24\nsamples = 12\nvalue = [0, 18, 0, 3]\nclass = moderate"] ;
466 -> 470 ;
471 [label="escolari/age-sum <= 0.19\ngini = 0.1\nsamples = 9\nvalue = [0, 17, 0, 1]\nclass = moderate"] ;
470 -> 471 ;
472 [label="instlevel3-sum <= 0.14\ngini = 0.32\nsamples = 2\nvalue = [0, 4, 0, 1]\nclass = moderate"] ;
471 -> 472 ;
473 [label="gini = 0.0\nsamples = 1\nvalue = [0, 4, 0, 0]\nclass = moderate"] ;
472 -> 473 ;
474 [label="gini = 0.0\nsamples = 1\nvalue = [0, 0, 0, 1]\nclass = non-vulnerable"] ;
472 -> 474 ;
475 [label="gini = 0.0\nsamples = 7\nvalue = [0, 13, 0, 0]\nclass = moderate"] ;
471 -> 475 ;
476 [label="parentesco2-std <= 0.56\ngini = 0.44\nsamples = 3\nvalue = [0, 1, 0, 2]\nclass = non-vulnerable"] ;
470 -> 476 ;
477 [label="gini = 0.0\nsamples = 2\nvalue = [0, 0, 0, 2]\nclass = non-vulnerable"] ;
476 -> 477 ;
478 [label="gini = 0.0\nsamples = 1\nvalue = [0, 1, 0, 0]\nclass = moderate"] ;
476 -> 478 ;
479 [label="inst/age-std <= 0.36\ngini = 0.28\nsamples = 3\nvalue = [0, 1, 5, 0]\nclass = vulnerable"] ;
465 -> 479 ;
480 [label="gini = 0.0\nsamples = 2\nvalue = [0, 0, 5, 0]\nclass = vulnerable"] ;
479 -> 480 ;
481 [label="gini = 0.0\nsamples = 1\nvalue = [0, 1, 0, 0]\nclass = moderate"] ;
479 -> 481 ;
482 [label="gini = 0.0\nsamples = 1\nvalue = [4, 0, 0, 0]\nclass = extreme"] ;
464 -> 482 ;
483 [label="bonus <= 0.38\ngini = 0.62\nsamples = 19\nvalue = [2, 4, 11, 18]\nclass = non-vulnerable"] ;
445 -> 483 ;
484 [label="rooms <= 0.35\ngini = 0.67\nsamples = 10\nvalue = [2, 4, 10, 5]\nclass = vulnerable"] ;
483 -> 484 ;
485 [label="rooms <= 0.25\ngini = 0.4\nsamples = 5\nvalue = [2, 1, 9, 0]\nclass = vulnerable"] ;
484 -> 485 ;
486 [label="escolari/age-max <= 0.61\ngini = 0.44\nsamples = 2\nvalue = [2, 1, 0, 0]\nclass = extreme"] ;
485 -> 486 ;
487 [label="gini = 0.0\nsamples = 1\nvalue = [0, 1, 0, 0]\nclass = moderate"] ;
486 -> 487 ;
488 [label="gini = 0.0\nsamples = 1\nvalue = [2, 0, 0, 0]\nclass = extreme"] ;
486 -> 488 ;
489 [label="gini = 0.0\nsamples = 3\nvalue = [0, 0, 9, 0]\nclass = vulnerable"] ;
485 -> 489 ;
490 [label="inst-std <= 0.31\ngini = 0.57\nsamples = 5\nvalue = [0, 3, 1, 5]\nclass = non-vulnerable"] ;
484 -> 490 ;
491 [label="inst-max <= 0.44\ngini = 0.38\nsamples = 3\nvalue = [0, 3, 1, 0]\nclass = moderate"] ;
490 -> 491 ;
492 [label="gini = 0.0\nsamples = 1\nvalue = [0, 0, 1, 0]\nclass = vulnerable"] ;
491 -> 492 ;
493 [label="gini = 0.0\nsamples = 2\nvalue = [0, 3, 0, 0]\nclass = moderate"] ;
491 -> 493 ;
494 [label="gini = 0.0\nsamples = 2\nvalue = [0, 0, 0, 5]\nclass = non-vulnerable"] ;
490 -> 494 ;
495 [label="age-sum <= 0.27\ngini = 0.13\nsamples = 9\nvalue = [0, 0, 1, 13]\nclass = non-vulnerable"] ;
483 -> 495 ;
496 [label="age-max <= 0.53\ngini = 0.38\nsamples = 2\nvalue = [0, 0, 1, 3]\nclass = non-vulnerable"] ;
495 -> 496 ;
497 [label="gini = 0.0\nsamples = 1\nvalue = [0, 0, 1, 0]\nclass = vulnerable"] ;
496 -> 497 ;
498 [label="gini = 0.0\nsamples = 1\nvalue = [0, 0, 0, 3]\nclass = non-vulnerable"] ;
496 -> 498 ;
499 [label="gini = 0.0\nsamples = 7\nvalue = [0, 0, 0, 10]\nclass = non-vulnerable"] ;
495 -> 499 ;
500 [label="edjefe <= 0.48\ngini = 0.73\nsamples = 112\nvalue = [33, 56, 33, 57]\nclass = non-vulnerable"] ;
286 -> 500 ;
501 [label="age-min <= 0.09\ngini = 0.74\nsamples = 106\nvalue = [33, 56, 33, 45]\nclass = moderate"] ;
500 -> 501 ;
502 [label="age-sum <= 0.19\ngini = 0.72\nsamples = 69\nvalue = [30, 41, 19, 18]\nclass = moderate"] ;
501 -> 502 ;
503 [label="hogar_nin <= 0.28\ngini = 0.65\nsamples = 32\nvalue = [11, 24, 3, 10]\nclass = moderate"] ;
502 -> 503 ;
504 [label="age-std <= 0.45\ngini = 0.69\nsamples = 12\nvalue = [4, 4, 2, 8]\nclass = non-vulnerable"] ;
503 -> 504 ;
505 [label="edjefa <= 0.33\ngini = 0.62\nsamples = 10\nvalue = [1, 4, 2, 8]\nclass = non-vulnerable"] ;
504 -> 505 ;
506 [label="escolari-std <= 0.28\ngini = 0.22\nsamples = 5\nvalue = [1, 0, 0, 7]\nclass = non-vulnerable"] ;
505 -> 506 ;
507 [label="r4m3 <= 0.19\ngini = 0.44\nsamples = 2\nvalue = [1, 0, 0, 2]\nclass = non-vulnerable"] ;
506 -> 507 ;
508 [label="gini = 0.0\nsamples = 1\nvalue = [0, 0, 0, 2]\nclass = non-vulnerable"] ;
507 -> 508 ;
509 [label="gini = 0.0\nsamples = 1\nvalue = [1, 0, 0, 0]\nclass = extreme"] ;
507 -> 509 ;
510 [label="gini = 0.0\nsamples = 3\nvalue = [0, 0, 0, 5]\nclass = non-vulnerable"] ;
506 -> 510 ;
511 [label="roof <= 0.25\ngini = 0.57\nsamples = 5\nvalue = [0, 4, 2, 1]\nclass = moderate"] ;
505 -> 511 ;
512 [label="gini = 0.0\nsamples = 1\nvalue = [0, 0, 2, 0]\nclass = vulnerable"] ;
511 -> 512 ;
513 [label="meaneduc <= 0.27\ngini = 0.32\nsamples = 4\nvalue = [0, 4, 0, 1]\nclass = moderate"] ;
511 -> 513 ;
514 [label="gini = 0.0\nsamples = 2\nvalue = [0, 3, 0, 0]\nclass = moderate"] ;
513 -> 514 ;
515 [label="escolari/age-max <= 0.66\ngini = 0.5\nsamples = 2\nvalue = [0, 1, 0, 1]\nclass = moderate"] ;
513 -> 515 ;
516 [label="gini = 0.0\nsamples = 1\nvalue = [0, 0, 0, 1]\nclass = non-vulnerable"] ;
515 -> 516 ;
517 [label="gini = 0.0\nsamples = 1\nvalue = [0, 1, 0, 0]\nclass = moderate"] ;
515 -> 517 ;
518 [label="gini = 0.0\nsamples = 2\nvalue = [3, 0, 0, 0]\nclass = extreme"] ;
504 -> 518 ;
519 [label="escolari/age-range_ <= 0.43\ngini = 0.5\nsamples = 20\nvalue = [7, 20, 1, 2]\nclass = moderate"] ;
503 -> 519 ;
520 [label="qmobilephone <= 0.15\ngini = 0.56\nsamples = 4\nvalue = [3, 0, 1, 1]\nclass = extreme"] ;
519 -> 520 ;
521 [label="gini = 0.0\nsamples = 2\nvalue = [3, 0, 0, 0]\nclass = extreme"] ;
520 -> 521 ;
522 [label="rooms-per-capita <= 0.08\ngini = 0.5\nsamples = 2\nvalue = [0, 0, 1, 1]\nclass = vulnerable"] ;
520 -> 522 ;
523 [label="gini = 0.0\nsamples = 1\nvalue = [0, 0, 1, 0]\nclass = vulnerable"] ;
522 -> 523 ;
524 [label="gini = 0.0\nsamples = 1\nvalue = [0, 0, 0, 1]\nclass = non-vulnerable"] ;
522 -> 524 ;
525 [label="edjefa <= 0.33\ngini = 0.33\nsamples = 16\nvalue = [4, 20, 0, 1]\nclass = moderate"] ;
519 -> 525 ;
526 [label="gini = 0.0\nsamples = 9\nvalue = [0, 17, 0, 0]\nclass = moderate"] ;
525 -> 526 ;
527 [label="instlevel1-sum <= 0.3\ngini = 0.59\nsamples = 7\nvalue = [4, 3, 0, 1]\nclass = extreme"] ;
525 -> 527 ;
528 [label="warning <= 0.12\ngini = 0.56\nsamples = 4\nvalue = [1, 3, 0, 1]\nclass = moderate"] ;
527 -> 528 ;
529 [label="overcrowding <= 0.22\ngini = 0.38\nsamples = 3\nvalue = [1, 3, 0, 0]\nclass = moderate"] ;
528 -> 529 ;
530 [label="gini = 0.0\nsamples = 2\nvalue = [0, 3, 0, 0]\nclass = moderate"] ;
529 -> 530 ;
531 [label="gini = 0.0\nsamples = 1\nvalue = [1, 0, 0, 0]\nclass = extreme"] ;
529 -> 531 ;
532 [label="gini = 0.0\nsamples = 1\nvalue = [0, 0, 0, 1]\nclass = non-vulnerable"] ;
528 -> 532 ;
533 [label="gini = 0.0\nsamples = 3\nvalue = [3, 0, 0, 0]\nclass = extreme"] ;
527 -> 533 ;
534 [label="escolari/age-range_ <= 0.64\ngini = 0.73\nsamples = 37\nvalue = [19, 17, 16, 8]\nclass = extreme"] ;
502 -> 534 ;
535 [label="warning <= 0.12\ngini = 0.66\nsamples = 17\nvalue = [8, 15, 6, 2]\nclass = moderate"] ;
534 -> 535 ;
536 [label="r4h3 <= 0.19\ngini = 0.52\nsamples = 13\nvalue = [5, 15, 2, 1]\nclass = moderate"] ;
535 -> 536 ;
537 [label="gini = 0.0\nsamples = 2\nvalue = [3, 0, 0, 0]\nclass = extreme"] ;
536 -> 537 ;
538 [label="female-std <= 0.77\ngini = 0.42\nsamples = 11\nvalue = [2, 15, 2, 1]\nclass = moderate"] ;
536 -> 538 ;
539 [label="age-max <= 0.44\ngini = 0.5\nsamples = 2\nvalue = [1, 0, 0, 1]\nclass = extreme"] ;
538 -> 539 ;
540 [label="gini = 0.0\nsamples = 1\nvalue = [1, 0, 0, 0]\nclass = extreme"] ;
539 -> 540 ;
541 [label="gini = 0.0\nsamples = 1\nvalue = [0, 0, 0, 1]\nclass = non-vulnerable"] ;
539 -> 541 ;
542 [label="rooms-per-capita <= 0.11\ngini = 0.29\nsamples = 9\nvalue = [1, 15, 2, 0]\nclass = moderate"] ;
538 -> 542 ;
543 [label="parentesco2-std <= 0.29\ngini = 0.12\nsamples = 7\nvalue = [1, 14, 0, 0]\nclass = moderate"] ;
542 -> 543 ;
544 [label="instlevel3-sum <= 0.07\ngini = 0.5\nsamples = 2\nvalue = [1, 1, 0, 0]\nclass = extreme"] ;
543 -> 544 ;
545 [label="gini = 0.0\nsamples = 1\nvalue = [1, 0, 0, 0]\nclass = extreme"] ;
544 -> 545 ;
546 [label="gini = 0.0\nsamples = 1\nvalue = [0, 1, 0, 0]\nclass = moderate"] ;
544 -> 546 ;
547 [label="gini = 0.0\nsamples = 5\nvalue = [0, 13, 0, 0]\nclass = moderate"] ;
543 -> 547 ;
548 [label="escolari-std <= 0.24\ngini = 0.44\nsamples = 2\nvalue = [0, 1, 2, 0]\nclass = vulnerable"] ;
542 -> 548 ;
549 [label="gini = 0.0\nsamples = 1\nvalue = [0, 1, 0, 0]\nclass = moderate"] ;
548 -> 549 ;
550 [label="gini = 0.0\nsamples = 1\nvalue = [0, 0, 2, 0]\nclass = vulnerable"] ;
548 -> 550 ;
551 [label="escolari/age-max <= 0.6\ngini = 0.59\nsamples = 4\nvalue = [3, 0, 4, 1]\nclass = vulnerable"] ;
535 -> 551 ;
552 [label="inst-range_ <= 0.56\ngini = 0.38\nsamples = 2\nvalue = [3, 0, 0, 1]\nclass = extreme"] ;
551 -> 552 ;
553 [label="gini = 0.0\nsamples = 1\nvalue = [0, 0, 0, 1]\nclass = non-vulnerable"] ;
552 -> 553 ;
554 [label="gini = 0.0\nsamples = 1\nvalue = [3, 0, 0, 0]\nclass = extreme"] ;
552 -> 554 ;
555 [label="gini = 0.0\nsamples = 2\nvalue = [0, 0, 4, 0]\nclass = vulnerable"] ;
551 -> 555 ;
556 [label="age-std <= 0.4\ngini = 0.69\nsamples = 20\nvalue = [11, 2, 10, 6]\nclass = extreme"] ;
534 -> 556 ;
557 [label="edjefa <= 0.36\ngini = 0.49\nsamples = 9\nvalue = [9, 1, 1, 2]\nclass = extreme"] ;
556 -> 557 ;
558 [label="bedrooms <= 0.43\ngini = 0.31\nsamples = 7\nvalue = [9, 1, 1, 0]\nclass = extreme"] ;
557 -> 558 ;
559 [label="parentesco3-sum <= 0.35\ngini = 0.18\nsamples = 6\nvalue = [9, 1, 0, 0]\nclass = extreme"] ;
558 -> 559 ;
560 [label="gini = 0.0\nsamples = 3\nvalue = [6, 0, 0, 0]\nclass = extreme"] ;
559 -> 560 ;
561 [label="instlevel2-std <= 0.73\ngini = 0.38\nsamples = 3\nvalue = [3, 1, 0, 0]\nclass = extreme"] ;
559 -> 561 ;
562 [label="gini = 0.0\nsamples = 2\nvalue = [3, 0, 0, 0]\nclass = extreme"] ;
561 -> 562 ;
563 [label="gini = 0.0\nsamples = 1\nvalue = [0, 1, 0, 0]\nclass = moderate"] ;
561 -> 563 ;
564 [label="gini = 0.0\nsamples = 1\nvalue = [0, 0, 1, 0]\nclass = vulnerable"] ;
558 -> 564 ;
565 [label="gini = 0.0\nsamples = 2\nvalue = [0, 0, 0, 2]\nclass = non-vulnerable"] ;
557 -> 565 ;
566 [label="edjefa <= 0.31\ngini = 0.6\nsamples = 11\nvalue = [2, 1, 9, 4]\nclass = vulnerable"] ;
556 -> 566 ;
567 [label="age-sum <= 0.3\ngini = 0.5\nsamples = 9\nvalue = [0, 1, 9, 4]\nclass = vulnerable"] ;
566 -> 567 ;
568 [label="r4m2 <= 0.25\ngini = 0.44\nsamples = 3\nvalue = [0, 0, 2, 4]\nclass = non-vulnerable"] ;
567 -> 568 ;
569 [label="gini = 0.0\nsamples = 1\nvalue = [0, 0, 2, 0]\nclass = vulnerable"] ;
568 -> 569 ;
570 [label="gini = 0.0\nsamples = 2\nvalue = [0, 0, 0, 4]\nclass = non-vulnerable"] ;
568 -> 570 ;
571 [label="estadocivil7-sum <= 0.15\ngini = 0.22\nsamples = 6\nvalue = [0, 1, 7, 0]\nclass = vulnerable"] ;
567 -> 571 ;
572 [label="parentesco3-sum <= 0.15\ngini = 0.44\nsamples = 2\nvalue = [0, 1, 2, 0]\nclass = vulnerable"] ;
571 -> 572 ;
573 [label="gini = 0.0\nsamples = 1\nvalue = [0, 1, 0, 0]\nclass = moderate"] ;
572 -> 573 ;
574 [label="gini = 0.0\nsamples = 1\nvalue = [0, 0, 2, 0]\nclass = vulnerable"] ;
572 -> 574 ;
575 [label="gini = 0.0\nsamples = 4\nvalue = [0, 0, 5, 0]\nclass = vulnerable"] ;
571 -> 575 ;
576 [label="gini = 0.0\nsamples = 2\nvalue = [2, 0, 0, 0]\nclass = extreme"] ;
566 -> 576 ;
577 [label="inst-std <= 0.27\ngini = 0.67\nsamples = 37\nvalue = [3, 15, 14, 27]\nclass = non-vulnerable"] ;
501 -> 577 ;
578 [label="escolari/age-max <= 0.66\ngini = 0.71\nsamples = 28\nvalue = [3, 11, 13, 12]\nclass = vulnerable"] ;
577 -> 578 ;
579 [label="r4m2 <= 0.25\ngini = 0.64\nsamples = 11\nvalue = [3, 6, 0, 5]\nclass = moderate"] ;
578 -> 579 ;
580 [label="overcrowding <= 0.18\ngini = 0.57\nsamples = 8\nvalue = [3, 1, 0, 5]\nclass = non-vulnerable"] ;
579 -> 580 ;
581 [label="r4h2 <= 0.19\ngini = 0.61\nsamples = 6\nvalue = [3, 1, 0, 2]\nclass = extreme"] ;
580 -> 581 ;
582 [label="dis-sum <= 0.17\ngini = 0.38\nsamples = 4\nvalue = [3, 1, 0, 0]\nclass = extreme"] ;
581 -> 582 ;
583 [label="gini = 0.0\nsamples = 3\nvalue = [3, 0, 0, 0]\nclass = extreme"] ;
582 -> 583 ;
584 [label="gini = 0.0\nsamples = 1\nvalue = [0, 1, 0, 0]\nclass = moderate"] ;
582 -> 584 ;
585 [label="gini = 0.0\nsamples = 2\nvalue = [0, 0, 0, 2]\nclass = non-vulnerable"] ;
581 -> 585 ;
586 [label="gini = 0.0\nsamples = 2\nvalue = [0, 0, 0, 3]\nclass = non-vulnerable"] ;
580 -> 586 ;
587 [label="gini = 0.0\nsamples = 3\nvalue = [0, 5, 0, 0]\nclass = moderate"] ;
579 -> 587 ;
588 [label="age-std <= 0.39\ngini = 0.61\nsamples = 17\nvalue = [0, 5, 13, 7]\nclass = vulnerable"] ;
578 -> 588 ;
589 [label="inst/age-std <= 0.34\ngini = 0.64\nsamples = 11\nvalue = [0, 5, 3, 6]\nclass = non-vulnerable"] ;
588 -> 589 ;
590 [label="inst/age-max <= 0.48\ngini = 0.6\nsamples = 8\nvalue = [0, 2, 3, 6]\nclass = non-vulnerable"] ;
589 -> 590 ;
591 [label="inst-std <= 0.19\ngini = 0.61\nsamples = 4\nvalue = [0, 2, 3, 1]\nclass = vulnerable"] ;
590 -> 591 ;
592 [label="qmobilephone <= 0.4\ngini = 0.44\nsamples = 2\nvalue = [0, 2, 0, 1]\nclass = moderate"] ;
591 -> 592 ;
593 [label="gini = 0.0\nsamples = 1\nvalue = [0, 0, 0, 1]\nclass = non-vulnerable"] ;
592 -> 593 ;
594 [label="gini = 0.0\nsamples = 1\nvalue = [0, 2, 0, 0]\nclass = moderate"] ;
592 -> 594 ;
595 [label="gini = 0.0\nsamples = 2\nvalue = [0, 0, 3, 0]\nclass = vulnerable"] ;
591 -> 595 ;
596 [label="gini = 0.0\nsamples = 4\nvalue = [0, 0, 0, 5]\nclass = non-vulnerable"] ;
590 -> 596 ;
597 [label="gini = 0.0\nsamples = 3\nvalue = [0, 3, 0, 0]\nclass = moderate"] ;
589 -> 597 ;
598 [label="escolari/age-sum <= 0.18\ngini = 0.17\nsamples = 6\nvalue = [0, 0, 10, 1]\nclass = vulnerable"] ;
588 -> 598 ;
599 [label="gini = 0.0\nsamples = 1\nvalue = [0, 0, 0, 1]\nclass = non-vulnerable"] ;
598 -> 599 ;
600 [label="gini = 0.0\nsamples = 5\nvalue = [0, 0, 10, 0]\nclass = vulnerable"] ;
598 -> 600 ;
601 [label="phones-per-capita <= 0.24\ngini = 0.4\nsamples = 9\nvalue = [0, 4, 1, 15]\nclass = non-vulnerable"] ;
577 -> 601 ;
602 [label="inst/age-max <= 0.45\ngini = 0.13\nsamples = 5\nvalue = [0, 0, 1, 13]\nclass = non-vulnerable"] ;
601 -> 602 ;
603 [label="gini = 0.0\nsamples = 1\nvalue = [0, 0, 1, 0]\nclass = vulnerable"] ;
602 -> 603 ;
604 [label="gini = 0.0\nsamples = 4\nvalue = [0, 0, 0, 13]\nclass = non-vulnerable"] ;
602 -> 604 ;
605 [label="instlevel2-std <= 0.72\ngini = 0.44\nsamples = 4\nvalue = [0, 4, 0, 2]\nclass = moderate"] ;
601 -> 605 ;
606 [label="gini = 0.0\nsamples = 2\nvalue = [0, 4, 0, 0]\nclass = moderate"] ;
605 -> 606 ;
607 [label="gini = 0.0\nsamples = 2\nvalue = [0, 0, 0, 2]\nclass = non-vulnerable"] ;
605 -> 607 ;
608 [label="gini = 0.0\nsamples = 6\nvalue = [0, 0, 0, 12]\nclass = non-vulnerable"] ;
500 -> 608 ;
609 [label="escolari-range_ <= 0.69\ngini = 0.26\nsamples = 264\nvalue = [8, 27, 22, 333]\nclass = non-vulnerable"] ;
1 -> 609 ;
610 [label="bonus <= 0.38\ngini = 0.35\nsamples = 183\nvalue = [8, 27, 21, 216]\nclass = non-vulnerable"] ;
609 -> 610 ;
611 [label="phones-per-capita <= 0.21\ngini = 0.57\nsamples = 70\nvalue = [8, 16, 13, 60]\nclass = non-vulnerable"] ;
610 -> 611 ;
612 [label="cielorazo <= 0.5\ngini = 0.7\nsamples = 29\nvalue = [2, 13, 10, 12]\nclass = moderate"] ;
611 -> 612 ;
613 [label="age-sum <= 0.26\ngini = 0.46\nsamples = 7\nvalue = [2, 7, 1, 0]\nclass = moderate"] ;
612 -> 613 ;
614 [label="bedrooms <= 0.21\ngini = 0.22\nsamples = 5\nvalue = [0, 7, 1, 0]\nclass = moderate"] ;
613 -> 614 ;
615 [label="gini = 0.0\nsamples = 4\nvalue = [0, 7, 0, 0]\nclass = moderate"] ;
614 -> 615 ;
616 [label="gini = 0.0\nsamples = 1\nvalue = [0, 0, 1, 0]\nclass = vulnerable"] ;
614 -> 616 ;
617 [label="gini = 0.0\nsamples = 2\nvalue = [2, 0, 0, 0]\nclass = extreme"] ;
613 -> 617 ;
618 [label="escolari/age-sum <= 0.21\ngini = 0.64\nsamples = 22\nvalue = [0, 6, 9, 12]\nclass = non-vulnerable"] ;
612 -> 618 ;
619 [label="escolari-max <= 0.64\ngini = 0.43\nsamples = 13\nvalue = [0, 0, 5, 11]\nclass = non-vulnerable"] ;
618 -> 619 ;
620 [label="escolari-range_ <= 0.38\ngini = 0.47\nsamples = 6\nvalue = [0, 0, 5, 3]\nclass = vulnerable"] ;
619 -> 620 ;
621 [label="gini = 0.0\nsamples = 1\nvalue = [0, 0, 0, 3]\nclass = non-vulnerable"] ;
620 -> 621 ;
622 [label="gini = 0.0\nsamples = 5\nvalue = [0, 0, 5, 0]\nclass = vulnerable"] ;
620 -> 622 ;
623 [label="gini = 0.0\nsamples = 7\nvalue = [0, 0, 0, 8]\nclass = non-vulnerable"] ;
619 -> 623 ;
624 [label="instlevel3-std <= 0.2\ngini = 0.56\nsamples = 9\nvalue = [0, 6, 4, 1]\nclass = moderate"] ;
618 -> 624 ;
625 [label="gini = 0.0\nsamples = 3\nvalue = [0, 5, 0, 0]\nclass = moderate"] ;
624 -> 625 ;
626 [label="escolari/age-std <= 0.64\ngini = 0.5\nsamples = 6\nvalue = [0, 1, 4, 1]\nclass = vulnerable"] ;
624 -> 626 ;
627 [label="escolari/age-std <= 0.4\ngini = 0.32\nsamples = 5\nvalue = [0, 1, 4, 0]\nclass = vulnerable"] ;
626 -> 627 ;
628 [label="rooms-per-capita <= 0.08\ngini = 0.5\nsamples = 2\nvalue = [0, 1, 1, 0]\nclass = moderate"] ;
627 -> 628 ;
629 [label="gini = 0.0\nsamples = 1\nvalue = [0, 0, 1, 0]\nclass = vulnerable"] ;
628 -> 629 ;
630 [label="gini = 0.0\nsamples = 1\nvalue = [0, 1, 0, 0]\nclass = moderate"] ;
628 -> 630 ;
631 [label="gini = 0.0\nsamples = 3\nvalue = [0, 0, 3, 0]\nclass = vulnerable"] ;
627 -> 631 ;
632 [label="gini = 0.0\nsamples = 1\nvalue = [0, 0, 0, 1]\nclass = non-vulnerable"] ;
626 -> 632 ;
633 [label="escolari/age-std <= 0.59\ngini = 0.34\nsamples = 41\nvalue = [6, 3, 3, 48]\nclass = non-vulnerable"] ;
611 -> 633 ;
634 [label="age-std <= 0.27\ngini = 0.21\nsamples = 38\nvalue = [0, 3, 3, 47]\nclass = non-vulnerable"] ;
633 -> 634 ;
635 [label="gini = 0.0\nsamples = 1\nvalue = [0, 0, 2, 0]\nclass = vulnerable"] ;
634 -> 635 ;
636 [label="walls+roof+floor <= 0.58\ngini = 0.15\nsamples = 37\nvalue = [0, 3, 1, 47]\nclass = non-vulnerable"] ;
634 -> 636 ;
637 [label="cielorazo <= 0.5\ngini = 0.47\nsamples = 7\nvalue = [0, 3, 0, 5]\nclass = non-vulnerable"] ;
636 -> 637 ;
638 [label="age-min <= 0.03\ngini = 0.28\nsamples = 5\nvalue = [0, 1, 0, 5]\nclass = non-vulnerable"] ;
637 -> 638 ;
639 [label="gini = 0.0\nsamples = 1\nvalue = [0, 1, 0, 0]\nclass = moderate"] ;
638 -> 639 ;
640 [label="gini = 0.0\nsamples = 4\nvalue = [0, 0, 0, 5]\nclass = non-vulnerable"] ;
638 -> 640 ;
641 [label="gini = 0.0\nsamples = 2\nvalue = [0, 2, 0, 0]\nclass = moderate"] ;
637 -> 641 ;
642 [label="age-min <= 0.1\ngini = 0.05\nsamples = 30\nvalue = [0, 0, 1, 42]\nclass = non-vulnerable"] ;
636 -> 642 ;
643 [label="escolari-range_ <= 0.52\ngini = 0.32\nsamples = 4\nvalue = [0, 0, 1, 4]\nclass = non-vulnerable"] ;
642 -> 643 ;
644 [label="gini = 0.0\nsamples = 1\nvalue = [0, 0, 1, 0]\nclass = vulnerable"] ;
643 -> 644 ;
645 [label="gini = 0.0\nsamples = 3\nvalue = [0, 0, 0, 4]\nclass = non-vulnerable"] ;
643 -> 645 ;
646 [label="gini = 0.0\nsamples = 26\nvalue = [0, 0, 0, 38]\nclass = non-vulnerable"] ;
642 -> 646 ;
647 [label="r4h2 <= 0.06\ngini = 0.24\nsamples = 3\nvalue = [6, 0, 0, 1]\nclass = extreme"] ;
633 -> 647 ;
648 [label="gini = 0.0\nsamples = 1\nvalue = [0, 0, 0, 1]\nclass = non-vulnerable"] ;
647 -> 648 ;
649 [label="gini = 0.0\nsamples = 2\nvalue = [6, 0, 0, 0]\nclass = extreme"] ;
647 -> 649 ;
650 [label="meaneduc <= 0.58\ngini = 0.2\nsamples = 113\nvalue = [0, 11, 8, 156]\nclass = non-vulnerable"] ;
610 -> 650 ;
651 [label="escolari-min <= 0.12\ngini = 0.16\nsamples = 111\nvalue = [0, 6, 8, 154]\nclass = non-vulnerable"] ;
650 -> 651 ;
652 [label="age-min <= 0.09\ngini = 0.29\nsamples = 52\nvalue = [0, 6, 7, 67]\nclass = non-vulnerable"] ;
651 -> 652 ;
653 [label="inst/age-max <= 0.8\ngini = 0.19\nsamples = 43\nvalue = [0, 6, 1, 59]\nclass = non-vulnerable"] ;
652 -> 653 ;
654 [label="r4h3 <= 0.56\ngini = 0.13\nsamples = 37\nvalue = [0, 3, 1, 52]\nclass = non-vulnerable"] ;
653 -> 654 ;
655 [label="overcrowding <= 0.26\ngini = 0.1\nsamples = 36\nvalue = [0, 3, 0, 52]\nclass = non-vulnerable"] ;
654 -> 655 ;
656 [label="gini = 0.0\nsamples = 19\nvalue = [0, 0, 0, 27]\nclass = non-vulnerable"] ;
655 -> 656 ;
657 [label="age-range_ <= 0.31\ngini = 0.19\nsamples = 17\nvalue = [0, 3, 0, 25]\nclass = non-vulnerable"] ;
655 -> 657 ;
658 [label="gini = 0.0\nsamples = 1\nvalue = [0, 2, 0, 0]\nclass = moderate"] ;
657 -> 658 ;
659 [label="instlevel2-sum <= 0.5\ngini = 0.07\nsamples = 16\nvalue = [0, 1, 0, 25]\nclass = non-vulnerable"] ;
657 -> 659 ;
660 [label="gini = 0.0\nsamples = 15\nvalue = [0, 0, 0, 25]\nclass = non-vulnerable"] ;
659 -> 660 ;
661 [label="gini = 0.0\nsamples = 1\nvalue = [0, 1, 0, 0]\nclass = moderate"] ;
659 -> 661 ;
662 [label="gini = 0.0\nsamples = 1\nvalue = [0, 0, 1, 0]\nclass = vulnerable"] ;
654 -> 662 ;
663 [label="age-std <= 0.41\ngini = 0.42\nsamples = 6\nvalue = [0, 3, 0, 7]\nclass = non-vulnerable"] ;
653 -> 663 ;
664 [label="gini = 0.0\nsamples = 1\nvalue = [0, 2, 0, 0]\nclass = moderate"] ;
663 -> 664 ;
665 [label="instlevel3-std <= 0.68\ngini = 0.22\nsamples = 5\nvalue = [0, 1, 0, 7]\nclass = non-vulnerable"] ;
663 -> 665 ;
666 [label="gini = 0.0\nsamples = 3\nvalue = [0, 0, 0, 6]\nclass = non-vulnerable"] ;
665 -> 666 ;
667 [label="overcrowding <= 0.25\ngini = 0.5\nsamples = 2\nvalue = [0, 1, 0, 1]\nclass = moderate"] ;
665 -> 667 ;
668 [label="gini = 0.0\nsamples = 1\nvalue = [0, 1, 0, 0]\nclass = moderate"] ;
667 -> 668 ;
669 [label="gini = 0.0\nsamples = 1\nvalue = [0, 0, 0, 1]\nclass = non-vulnerable"] ;
667 -> 669 ;
670 [label="escolari-min <= 0.05\ngini = 0.49\nsamples = 9\nvalue = [0, 0, 6, 8]\nclass = non-vulnerable"] ;
652 -> 670 ;
671 [label="gini = 0.0\nsamples = 2\nvalue = [0, 0, 3, 0]\nclass = vulnerable"] ;
670 -> 671 ;
672 [label="warning <= 0.12\ngini = 0.4\nsamples = 7\nvalue = [0, 0, 3, 8]\nclass = non-vulnerable"] ;
670 -> 672 ;
673 [label="gini = 0.0\nsamples = 6\nvalue = [0, 0, 0, 8]\nclass = non-vulnerable"] ;
672 -> 673 ;
674 [label="gini = 0.0\nsamples = 1\nvalue = [0, 0, 3, 0]\nclass = vulnerable"] ;
672 -> 674 ;
675 [label="walls+roof+floor <= 0.67\ngini = 0.02\nsamples = 59\nvalue = [0, 0, 1, 87]\nclass = non-vulnerable"] ;
651 -> 675 ;
676 [label="escolari-range_ <= 0.36\ngini = 0.2\nsamples = 6\nvalue = [0, 0, 1, 8]\nclass = non-vulnerable"] ;
675 -> 676 ;
677 [label="age-min <= 0.16\ngini = 0.44\nsamples = 2\nvalue = [0, 0, 1, 2]\nclass = non-vulnerable"] ;
676 -> 677 ;
678 [label="gini = 0.0\nsamples = 1\nvalue = [0, 0, 0, 2]\nclass = non-vulnerable"] ;
677 -> 678 ;
679 [label="gini = 0.0\nsamples = 1\nvalue = [0, 0, 1, 0]\nclass = vulnerable"] ;
677 -> 679 ;
680 [label="gini = 0.0\nsamples = 4\nvalue = [0, 0, 0, 6]\nclass = non-vulnerable"] ;
676 -> 680 ;
681 [label="gini = 0.0\nsamples = 53\nvalue = [0, 0, 0, 79]\nclass = non-vulnerable"] ;
675 -> 681 ;
682 [label="age-sum <= 0.23\ngini = 0.41\nsamples = 2\nvalue = [0, 5, 0, 2]\nclass = moderate"] ;
650 -> 682 ;
683 [label="gini = 0.0\nsamples = 1\nvalue = [0, 5, 0, 0]\nclass = moderate"] ;
682 -> 683 ;
684 [label="gini = 0.0\nsamples = 1\nvalue = [0, 0, 0, 2]\nclass = non-vulnerable"] ;
682 -> 684 ;
685 [label="escolari/age-min <= 0.31\ngini = 0.02\nsamples = 81\nvalue = [0, 0, 1, 117]\nclass = non-vulnerable"] ;
609 -> 685 ;
686 [label="gini = 0.0\nsamples = 76\nvalue = [0, 0, 0, 111]\nclass = non-vulnerable"] ;
685 -> 686 ;
687 [label="meaneduc <= 0.36\ngini = 0.24\nsamples = 5\nvalue = [0, 0, 1, 6]\nclass = non-vulnerable"] ;
685 -> 687 ;
688 [label="gini = 0.0\nsamples = 1\nvalue = [0, 0, 1, 0]\nclass = vulnerable"] ;
687 -> 688 ;
689 [label="gini = 0.0\nsamples = 4\nvalue = [0, 0, 0, 6]\nclass = non-vulnerable"] ;
687 -> 689 ;
690 [label="inst/age-max <= 0.12\ngini = 0.4\nsamples = 974\nvalue = [68, 163, 134, 1177]\nclass = non-vulnerable"] ;
0 -> 690 [labeldistance=2.5, labelangle=-45, headlabel="False"] ;
691 [label="parentesco2-std <= 0.35\ngini = 0.66\nsamples = 267\nvalue = [35, 104, 81, 205]\nclass = non-vulnerable"] ;
690 -> 691 ;
692 [label="female-std <= 0.41\ngini = 0.68\nsamples = 28\nvalue = [4, 20, 8, 12]\nclass = moderate"] ;
691 -> 692 ;
693 [label="age-min <= 0.47\ngini = 0.36\nsamples = 9\nvalue = [0, 11, 1, 2]\nclass = moderate"] ;
692 -> 693 ;
694 [label="gini = 0.0\nsamples = 1\nvalue = [0, 0, 0, 2]\nclass = non-vulnerable"] ;
693 -> 694 ;
695 [label="age-max <= 0.72\ngini = 0.15\nsamples = 8\nvalue = [0, 11, 1, 0]\nclass = moderate"] ;
693 -> 695 ;
696 [label="gini = 0.0\nsamples = 4\nvalue = [0, 8, 0, 0]\nclass = moderate"] ;
695 -> 696 ;
697 [label="meaneduc <= 0.06\ngini = 0.38\nsamples = 4\nvalue = [0, 3, 1, 0]\nclass = moderate"] ;
695 -> 697 ;
698 [label="gini = 0.0\nsamples = 3\nvalue = [0, 3, 0, 0]\nclass = moderate"] ;
697 -> 698 ;
699 [label="gini = 0.0\nsamples = 1\nvalue = [0, 0, 1, 0]\nclass = vulnerable"] ;
697 -> 699 ;
700 [label="instlevel3-std <= 0.76\ngini = 0.73\nsamples = 19\nvalue = [4, 9, 7, 10]\nclass = non-vulnerable"] ;
692 -> 700 ;
701 [label="inst/age-range_ <= 0.01\ngini = 0.6\nsamples = 10\nvalue = [2, 9, 4, 1]\nclass = moderate"] ;
700 -> 701 ;
702 [label="cielorazo <= 0.5\ngini = 0.57\nsamples = 4\nvalue = [2, 0, 4, 1]\nclass = vulnerable"] ;
701 -> 702 ;
703 [label="gini = 0.0\nsamples = 2\nvalue = [0, 0, 4, 0]\nclass = vulnerable"] ;
702 -> 703 ;
704 [label="walls+roof+floor <= 0.75\ngini = 0.44\nsamples = 2\nvalue = [2, 0, 0, 1]\nclass = extreme"] ;
702 -> 704 ;
705 [label="gini = 0.0\nsamples = 1\nvalue = [2, 0, 0, 0]\nclass = extreme"] ;
704 -> 705 ;
706 [label="gini = 0.0\nsamples = 1\nvalue = [0, 0, 0, 1]\nclass = non-vulnerable"] ;
704 -> 706 ;
707 [label="gini = 0.0\nsamples = 6\nvalue = [0, 9, 0, 0]\nclass = moderate"] ;
701 -> 707 ;
708 [label="escolari-max <= 0.33\ngini = 0.52\nsamples = 9\nvalue = [2, 0, 3, 9]\nclass = non-vulnerable"] ;
700 -> 708 ;
709 [label="r4m2 <= 0.25\ngini = 0.4\nsamples = 8\nvalue = [2, 0, 1, 9]\nclass = non-vulnerable"] ;
708 -> 709 ;
710 [label="gini = 0.0\nsamples = 5\nvalue = [0, 0, 0, 8]\nclass = non-vulnerable"] ;
709 -> 710 ;
711 [label="rooms-per-capita <= 0.15\ngini = 0.62\nsamples = 3\nvalue = [2, 0, 1, 1]\nclass = extreme"] ;
709 -> 711 ;
712 [label="gini = 0.0\nsamples = 1\nvalue = [2, 0, 0, 0]\nclass = extreme"] ;
711 -> 712 ;
713 [label="parentesco3-sum <= 0.1\ngini = 0.5\nsamples = 2\nvalue = [0, 0, 1, 1]\nclass = vulnerable"] ;
711 -> 713 ;
714 [label="gini = 0.0\nsamples = 1\nvalue = [0, 0, 1, 0]\nclass = vulnerable"] ;
713 -> 714 ;
715 [label="gini = 0.0\nsamples = 1\nvalue = [0, 0, 0, 1]\nclass = non-vulnerable"] ;
713 -> 715 ;
716 [label="gini = 0.0\nsamples = 1\nvalue = [0, 0, 2, 0]\nclass = vulnerable"] ;
708 -> 716 ;
717 [label="walls+roof+floor <= 0.58\ngini = 0.65\nsamples = 239\nvalue = [31, 84, 73, 193]\nclass = non-vulnerable"] ;
691 -> 717 ;
718 [label="v2a1 <= 0.01\ngini = 0.71\nsamples = 98\nvalue = [15, 42, 36, 60]\nclass = non-vulnerable"] ;
717 -> 718 ;
719 [label="inst/age-max <= 0.06\ngini = 0.72\nsamples = 88\nvalue = [15, 42, 32, 45]\nclass = non-vulnerable"] ;
718 -> 719 ;
720 [label="edjefa <= 0.02\ngini = 0.69\nsamples = 35\nvalue = [7, 22, 14, 7]\nclass = moderate"] ;
719 -> 720 ;
721 [label="age-max <= 0.68\ngini = 0.72\nsamples = 30\nvalue = [7, 14, 13, 7]\nclass = moderate"] ;
720 -> 721 ;
722 [label="dis-sum <= 0.17\ngini = 0.73\nsamples = 16\nvalue = [6, 3, 8, 6]\nclass = vulnerable"] ;
721 -> 722 ;
723 [label="paredblolad <= 0.5\ngini = 0.73\nsamples = 13\nvalue = [5, 3, 4, 6]\nclass = non-vulnerable"] ;
722 -> 723 ;
724 [label="age-std <= 0.13\ngini = 0.57\nsamples = 8\nvalue = [5, 3, 1, 0]\nclass = extreme"] ;
723 -> 724 ;
725 [label="gini = 0.0\nsamples = 2\nvalue = [3, 0, 0, 0]\nclass = extreme"] ;
724 -> 725 ;
726 [label="rooms <= 0.35\ngini = 0.61\nsamples = 6\nvalue = [2, 3, 1, 0]\nclass = moderate"] ;
724 -> 726 ;
727 [label="escolari/age-std <= 0.24\ngini = 0.48\nsamples = 5\nvalue = [2, 3, 0, 0]\nclass = moderate"] ;
726 -> 727 ;
728 [label="gini = 0.0\nsamples = 2\nvalue = [0, 2, 0, 0]\nclass = moderate"] ;
727 -> 728 ;
729 [label="rooms <= 0.1\ngini = 0.44\nsamples = 3\nvalue = [2, 1, 0, 0]\nclass = extreme"] ;
727 -> 729 ;
730 [label="gini = 0.0\nsamples = 1\nvalue = [0, 1, 0, 0]\nclass = moderate"] ;
729 -> 730 ;
731 [label="gini = 0.0\nsamples = 2\nvalue = [2, 0, 0, 0]\nclass = extreme"] ;
729 -> 731 ;
732 [label="gini = 0.0\nsamples = 1\nvalue = [0, 0, 1, 0]\nclass = vulnerable"] ;
726 -> 732 ;
733 [label="inst-std <= 0.19\ngini = 0.44\nsamples = 5\nvalue = [0, 0, 3, 6]\nclass = non-vulnerable"] ;
723 -> 733 ;
734 [label="gini = 0.0\nsamples = 3\nvalue = [0, 0, 0, 4]\nclass = non-vulnerable"] ;
733 -> 734 ;
735 [label="roof <= 0.25\ngini = 0.48\nsamples = 2\nvalue = [0, 0, 3, 2]\nclass = vulnerable"] ;
733 -> 735 ;
736 [label="gini = 0.0\nsamples = 1\nvalue = [0, 0, 0, 2]\nclass = non-vulnerable"] ;
735 -> 736 ;
737 [label="gini = 0.0\nsamples = 1\nvalue = [0, 0, 3, 0]\nclass = vulnerable"] ;
735 -> 737 ;
738 [label="escolari-std <= 0.15\ngini = 0.32\nsamples = 3\nvalue = [1, 0, 4, 0]\nclass = vulnerable"] ;
722 -> 738 ;
739 [label="gini = 0.0\nsamples = 1\nvalue = [1, 0, 0, 0]\nclass = extreme"] ;
738 -> 739 ;
740 [label="gini = 0.0\nsamples = 2\nvalue = [0, 0, 4, 0]\nclass = vulnerable"] ;
738 -> 740 ;
741 [label="age-min <= 0.65\ngini = 0.54\nsamples = 14\nvalue = [1, 11, 5, 1]\nclass = moderate"] ;
721 -> 741 ;
742 [label="rooms-per-capita <= 0.19\ngini = 0.44\nsamples = 3\nvalue = [1, 0, 2, 0]\nclass = vulnerable"] ;
741 -> 742 ;
743 [label="gini = 0.0\nsamples = 1\nvalue = [1, 0, 0, 0]\nclass = extreme"] ;
742 -> 743 ;
744 [label="gini = 0.0\nsamples = 2\nvalue = [0, 0, 2, 0]\nclass = vulnerable"] ;
742 -> 744 ;
745 [label="age-max <= 0.77\ngini = 0.42\nsamples = 11\nvalue = [0, 11, 3, 1]\nclass = moderate"] ;
741 -> 745 ;
746 [label="gini = 0.0\nsamples = 4\nvalue = [0, 7, 0, 0]\nclass = moderate"] ;
745 -> 746 ;
747 [label="meaneduc <= 0.07\ngini = 0.59\nsamples = 7\nvalue = [0, 4, 3, 1]\nclass = moderate"] ;
745 -> 747 ;
748 [label="roof <= 0.25\ngini = 0.57\nsamples = 6\nvalue = [0, 4, 2, 1]\nclass = moderate"] ;
747 -> 748 ;
749 [label="gini = 0.0\nsamples = 2\nvalue = [0, 0, 2, 0]\nclass = vulnerable"] ;
748 -> 749 ;
750 [label="bonus <= 0.38\ngini = 0.32\nsamples = 4\nvalue = [0, 4, 0, 1]\nclass = moderate"] ;
748 -> 750 ;
751 [label="gini = 0.0\nsamples = 3\nvalue = [0, 4, 0, 0]\nclass = moderate"] ;
750 -> 751 ;
752 [label="gini = 0.0\nsamples = 1\nvalue = [0, 0, 0, 1]\nclass = non-vulnerable"] ;
750 -> 752 ;
753 [label="gini = 0.0\nsamples = 1\nvalue = [0, 0, 1, 0]\nclass = vulnerable"] ;
747 -> 753 ;
754 [label="edjefa <= 0.17\ngini = 0.2\nsamples = 5\nvalue = [0, 8, 1, 0]\nclass = moderate"] ;
720 -> 754 ;
755 [label="gini = 0.0\nsamples = 3\nvalue = [0, 7, 0, 0]\nclass = moderate"] ;
754 -> 755 ;
756 [label="escolari-min <= 0.21\ngini = 0.5\nsamples = 2\nvalue = [0, 1, 1, 0]\nclass = moderate"] ;
754 -> 756 ;
757 [label="gini = 0.0\nsamples = 1\nvalue = [0, 0, 1, 0]\nclass = vulnerable"] ;
756 -> 757 ;
758 [label="gini = 0.0\nsamples = 1\nvalue = [0, 1, 0, 0]\nclass = moderate"] ;
756 -> 758 ;
759 [label="age-min <= 0.68\ngini = 0.68\nsamples = 53\nvalue = [8, 20, 18, 38]\nclass = non-vulnerable"] ;
719 -> 759 ;
760 [label="instlevel3-std <= 0.91\ngini = 0.68\nsamples = 37\nvalue = [8, 17, 5, 23]\nclass = non-vulnerable"] ;
759 -> 760 ;
761 [label="lugar1 <= 0.5\ngini = 0.59\nsamples = 28\nvalue = [2, 15, 2, 19]\nclass = non-vulnerable"] ;
760 -> 761 ;
762 [label="r4m3 <= 0.06\ngini = 0.54\nsamples = 23\nvalue = [2, 10, 1, 19]\nclass = non-vulnerable"] ;
761 -> 762 ;
763 [label="age-max <= 0.49\ngini = 0.38\nsamples = 8\nvalue = [0, 2, 1, 10]\nclass = non-vulnerable"] ;
762 -> 763 ;
764 [label="age-sum <= 0.09\ngini = 0.17\nsamples = 6\nvalue = [0, 0, 1, 10]\nclass = non-vulnerable"] ;
763 -> 764 ;
765 [label="gini = 0.0\nsamples = 4\nvalue = [0, 0, 0, 8]\nclass = non-vulnerable"] ;
764 -> 765 ;
766 [label="bedrooms <= 0.21\ngini = 0.44\nsamples = 2\nvalue = [0, 0, 1, 2]\nclass = non-vulnerable"] ;
764 -> 766 ;
767 [label="gini = 0.0\nsamples = 1\nvalue = [0, 0, 1, 0]\nclass = vulnerable"] ;
766 -> 767 ;
768 [label="gini = 0.0\nsamples = 1\nvalue = [0, 0, 0, 2]\nclass = non-vulnerable"] ;
766 -> 768 ;
769 [label="gini = 0.0\nsamples = 2\nvalue = [0, 2, 0, 0]\nclass = moderate"] ;
763 -> 769 ;
770 [label="escolari/age-sum <= 0.03\ngini = 0.59\nsamples = 15\nvalue = [2, 8, 0, 9]\nclass = non-vulnerable"] ;
762 -> 770 ;
771 [label="walls+roof+floor <= 0.25\ngini = 0.44\nsamples = 6\nvalue = [2, 4, 0, 0]\nclass = moderate"] ;
770 -> 771 ;
772 [label="escolari/age-std <= 0.19\ngini = 0.5\nsamples = 4\nvalue = [2, 2, 0, 0]\nclass = extreme"] ;
771 -> 772 ;
773 [label="gini = 0.0\nsamples = 1\nvalue = [0, 1, 0, 0]\nclass = moderate"] ;
772 -> 773 ;
774 [label="bonus <= 0.12\ngini = 0.44\nsamples = 3\nvalue = [2, 1, 0, 0]\nclass = extreme"] ;
772 -> 774 ;
775 [label="gini = 0.0\nsamples = 1\nvalue = [0, 1, 0, 0]\nclass = moderate"] ;
774 -> 775 ;
776 [label="gini = 0.0\nsamples = 2\nvalue = [2, 0, 0, 0]\nclass = extreme"] ;
774 -> 776 ;
777 [label="gini = 0.0\nsamples = 2\nvalue = [0, 2, 0, 0]\nclass = moderate"] ;
771 -> 777 ;
778 [label="warning <= 0.12\ngini = 0.43\nsamples = 9\nvalue = [0, 4, 0, 9]\nclass = non-vulnerable"] ;
770 -> 778 ;
779 [label="r4h2 <= 0.19\ngini = 0.38\nsamples = 3\nvalue = [0, 3, 0, 1]\nclass = moderate"] ;
778 -> 779 ;
780 [label="qmobilephone <= 0.15\ngini = 0.5\nsamples = 2\nvalue = [0, 1, 0, 1]\nclass = moderate"] ;
779 -> 780 ;
781 [label="gini = 0.0\nsamples = 1\nvalue = [0, 1, 0, 0]\nclass = moderate"] ;
780 -> 781 ;
782 [label="gini = 0.0\nsamples = 1\nvalue = [0, 0, 0, 1]\nclass = non-vulnerable"] ;
780 -> 782 ;
783 [label="gini = 0.0\nsamples = 1\nvalue = [0, 2, 0, 0]\nclass = moderate"] ;
779 -> 783 ;
784 [label="walls+roof+floor <= 0.33\ngini = 0.2\nsamples = 6\nvalue = [0, 1, 0, 8]\nclass = non-vulnerable"] ;
778 -> 784 ;
785 [label="gini = 0.0\nsamples = 4\nvalue = [0, 0, 0, 7]\nclass = non-vulnerable"] ;
784 -> 785 ;
786 [label="escolari/age-min <= 0.13\ngini = 0.5\nsamples = 2\nvalue = [0, 1, 0, 1]\nclass = moderate"] ;
784 -> 786 ;
787 [label="gini = 0.0\nsamples = 1\nvalue = [0, 1, 0, 0]\nclass = moderate"] ;
786 -> 787 ;
788 [label="gini = 0.0\nsamples = 1\nvalue = [0, 0, 0, 1]\nclass = non-vulnerable"] ;
786 -> 788 ;
789 [label="tech-sum <= 0.07\ngini = 0.28\nsamples = 5\nvalue = [0, 5, 1, 0]\nclass = moderate"] ;
761 -> 789 ;
790 [label="gini = 0.0\nsamples = 4\nvalue = [0, 5, 0, 0]\nclass = moderate"] ;
789 -> 790 ;
791 [label="gini = 0.0\nsamples = 1\nvalue = [0, 0, 1, 0]\nclass = vulnerable"] ;
789 -> 791 ;
792 [label="escolari/age-max <= 0.17\ngini = 0.71\nsamples = 9\nvalue = [6, 2, 3, 4]\nclass = extreme"] ;
760 -> 792 ;
793 [label="walls <= 0.25\ngini = 0.61\nsamples = 8\nvalue = [6, 2, 0, 4]\nclass = extreme"] ;
792 -> 793 ;
794 [label="gini = 0.0\nsamples = 2\nvalue = [0, 2, 0, 0]\nclass = moderate"] ;
793 -> 794 ;
795 [label="escolari/age-std <= 0.04\ngini = 0.48\nsamples = 6\nvalue = [6, 0, 0, 4]\nclass = extreme"] ;
793 -> 795 ;
796 [label="gini = 0.0\nsamples = 1\nvalue = [0, 0, 0, 2]\nclass = non-vulnerable"] ;
795 -> 796 ;
797 [label="age-std <= 0.04\ngini = 0.38\nsamples = 5\nvalue = [6, 0, 0, 2]\nclass = extreme"] ;
795 -> 797 ;
798 [label="gini = 0.0\nsamples = 3\nvalue = [4, 0, 0, 0]\nclass = extreme"] ;
797 -> 798 ;
799 [label="edjefe <= 0.21\ngini = 0.5\nsamples = 2\nvalue = [2, 0, 0, 2]\nclass = extreme"] ;
797 -> 799 ;
800 [label="gini = 0.0\nsamples = 1\nvalue = [0, 0, 0, 2]\nclass = non-vulnerable"] ;
799 -> 800 ;
801 [label="gini = 0.0\nsamples = 1\nvalue = [2, 0, 0, 0]\nclass = extreme"] ;
799 -> 801 ;
802 [label="gini = 0.0\nsamples = 1\nvalue = [0, 0, 3, 0]\nclass = vulnerable"] ;
792 -> 802 ;
803 [label="age-std <= 0.09\ngini = 0.58\nsamples = 16\nvalue = [0, 3, 13, 15]\nclass = non-vulnerable"] ;
759 -> 803 ;
804 [label="inst/age-max <= 0.07\ngini = 0.2\nsamples = 4\nvalue = [0, 1, 0, 8]\nclass = non-vulnerable"] ;
803 -> 804 ;
805 [label="escolari-sum <= 0.07\ngini = 0.38\nsamples = 2\nvalue = [0, 1, 0, 3]\nclass = non-vulnerable"] ;
804 -> 805 ;
806 [label="gini = 0.0\nsamples = 1\nvalue = [0, 1, 0, 0]\nclass = moderate"] ;
805 -> 806 ;
807 [label="gini = 0.0\nsamples = 1\nvalue = [0, 0, 0, 3]\nclass = non-vulnerable"] ;
805 -> 807 ;
808 [label="gini = 0.0\nsamples = 2\nvalue = [0, 0, 0, 5]\nclass = non-vulnerable"] ;
804 -> 808 ;
809 [label="escolari/age-max <= 0.12\ngini = 0.54\nsamples = 12\nvalue = [0, 2, 13, 7]\nclass = vulnerable"] ;
803 -> 809 ;
810 [label="warning <= 0.12\ngini = 0.6\nsamples = 9\nvalue = [0, 2, 5, 7]\nclass = non-vulnerable"] ;
809 -> 810 ;
811 [label="age-range_ <= 0.09\ngini = 0.24\nsamples = 4\nvalue = [0, 0, 1, 6]\nclass = non-vulnerable"] ;
810 -> 811 ;
812 [label="gini = 0.0\nsamples = 3\nvalue = [0, 0, 0, 6]\nclass = non-vulnerable"] ;
811 -> 812 ;
813 [label="gini = 0.0\nsamples = 1\nvalue = [0, 0, 1, 0]\nclass = vulnerable"] ;
811 -> 813 ;
814 [label="age-max <= 0.69\ngini = 0.57\nsamples = 5\nvalue = [0, 2, 4, 1]\nclass = vulnerable"] ;
810 -> 814 ;
815 [label="gini = 0.0\nsamples = 2\nvalue = [0, 0, 3, 0]\nclass = vulnerable"] ;
814 -> 815 ;
816 [label="roof <= 0.25\ngini = 0.62\nsamples = 3\nvalue = [0, 2, 1, 1]\nclass = moderate"] ;
814 -> 816 ;
817 [label="overcrowding <= 0.09\ngini = 0.44\nsamples = 2\nvalue = [0, 2, 1, 0]\nclass = moderate"] ;
816 -> 817 ;
818 [label="gini = 0.0\nsamples = 1\nvalue = [0, 0, 1, 0]\nclass = vulnerable"] ;
817 -> 818 ;
819 [label="gini = 0.0\nsamples = 1\nvalue = [0, 2, 0, 0]\nclass = moderate"] ;
817 -> 819 ;
820 [label="gini = 0.0\nsamples = 1\nvalue = [0, 0, 0, 1]\nclass = non-vulnerable"] ;
816 -> 820 ;
821 [label="gini = 0.0\nsamples = 3\nvalue = [0, 0, 8, 0]\nclass = vulnerable"] ;
809 -> 821 ;
822 [label="instlevel3-sum <= 0.21\ngini = 0.33\nsamples = 10\nvalue = [0, 0, 4, 15]\nclass = non-vulnerable"] ;
718 -> 822 ;
823 [label="dependency <= 0.5\ngini = 0.12\nsamples = 9\nvalue = [0, 0, 1, 15]\nclass = non-vulnerable"] ;
822 -> 823 ;
824 [label="gini = 0.0\nsamples = 8\nvalue = [0, 0, 0, 15]\nclass = non-vulnerable"] ;
823 -> 824 ;
825 [label="gini = 0.0\nsamples = 1\nvalue = [0, 0, 1, 0]\nclass = vulnerable"] ;
823 -> 825 ;
826 [label="gini = 0.0\nsamples = 1\nvalue = [0, 0, 3, 0]\nclass = vulnerable"] ;
822 -> 826 ;
827 [label="instlevel1-sum <= 0.1\ngini = 0.59\nsamples = 141\nvalue = [16, 42, 37, 133]\nclass = non-vulnerable"] ;
717 -> 827 ;
828 [label="age-min <= 0.68\ngini = 0.53\nsamples = 117\nvalue = [8, 27, 32, 124]\nclass = non-vulnerable"] ;
827 -> 828 ;
829 [label="escolari/age-sum <= 0.03\ngini = 0.34\nsamples = 48\nvalue = [5, 5, 6, 67]\nclass = non-vulnerable"] ;
828 -> 829 ;
830 [label="escolari-std <= 0.06\ngini = 0.21\nsamples = 32\nvalue = [0, 3, 4, 53]\nclass = non-vulnerable"] ;
829 -> 830 ;
831 [label="paredblolad <= 0.5\ngini = 0.61\nsamples = 4\nvalue = [0, 3, 1, 3]\nclass = moderate"] ;
830 -> 831 ;
832 [label="age-std <= 0.17\ngini = 0.38\nsamples = 2\nvalue = [0, 3, 1, 0]\nclass = moderate"] ;
831 -> 832 ;
833 [label="gini = 0.0\nsamples = 1\nvalue = [0, 3, 0, 0]\nclass = moderate"] ;
832 -> 833 ;
834 [label="gini = 0.0\nsamples = 1\nvalue = [0, 0, 1, 0]\nclass = vulnerable"] ;
832 -> 834 ;
835 [label="gini = 0.0\nsamples = 2\nvalue = [0, 0, 0, 3]\nclass = non-vulnerable"] ;
831 -> 835 ;
836 [label="age-range_ <= 0.01\ngini = 0.11\nsamples = 28\nvalue = [0, 0, 3, 50]\nclass = non-vulnerable"] ;
830 -> 836 ;
837 [label="escolari/age-max <= 0.14\ngini = 0.17\nsamples = 20\nvalue = [0, 0, 3, 29]\nclass = non-vulnerable"] ;
836 -> 837 ;
838 [label="inst/age-max <= 0.09\ngini = 0.3\nsamples = 11\nvalue = [0, 0, 3, 13]\nclass = non-vulnerable"] ;
837 -> 838 ;
839 [label="bedrooms <= 0.29\ngini = 0.13\nsamples = 10\nvalue = [0, 0, 1, 13]\nclass = non-vulnerable"] ;
838 -> 839 ;
840 [label="gini = 0.0\nsamples = 9\nvalue = [0, 0, 0, 13]\nclass = non-vulnerable"] ;
839 -> 840 ;
841 [label="gini = 0.0\nsamples = 1\nvalue = [0, 0, 1, 0]\nclass = vulnerable"] ;
839 -> 841 ;
842 [label="gini = 0.0\nsamples = 1\nvalue = [0, 0, 2, 0]\nclass = vulnerable"] ;
838 -> 842 ;
843 [label="gini = 0.0\nsamples = 9\nvalue = [0, 0, 0, 16]\nclass = non-vulnerable"] ;
837 -> 843 ;
844 [label="gini = 0.0\nsamples = 8\nvalue = [0, 0, 0, 21]\nclass = non-vulnerable"] ;
836 -> 844 ;
845 [label="escolari/age-range_ <= 0.04\ngini = 0.57\nsamples = 16\nvalue = [5, 2, 2, 14]\nclass = non-vulnerable"] ;
829 -> 845 ;
846 [label="escolari/age-std <= 0.01\ngini = 0.31\nsamples = 12\nvalue = [1, 1, 1, 14]\nclass = non-vulnerable"] ;
845 -> 846 ;
847 [label="gini = 0.0\nsamples = 4\nvalue = [0, 0, 0, 7]\nclass = non-vulnerable"] ;
846 -> 847 ;
848 [label="escolari/age-min <= 0.14\ngini = 0.48\nsamples = 8\nvalue = [1, 1, 1, 7]\nclass = non-vulnerable"] ;
846 -> 848 ;
849 [label="age-max <= 0.67\ngini = 0.22\nsamples = 6\nvalue = [0, 0, 1, 7]\nclass = non-vulnerable"] ;
848 -> 849 ;
850 [label="gini = 0.0\nsamples = 5\nvalue = [0, 0, 0, 7]\nclass = non-vulnerable"] ;
849 -> 850 ;
851 [label="gini = 0.0\nsamples = 1\nvalue = [0, 0, 1, 0]\nclass = vulnerable"] ;
849 -> 851 ;
852 [label="cielorazo <= 0.5\ngini = 0.5\nsamples = 2\nvalue = [1, 1, 0, 0]\nclass = extreme"] ;
848 -> 852 ;
853 [label="gini = 0.0\nsamples = 1\nvalue = [1, 0, 0, 0]\nclass = extreme"] ;
852 -> 853 ;
854 [label="gini = 0.0\nsamples = 1\nvalue = [0, 1, 0, 0]\nclass = moderate"] ;
852 -> 854 ;
855 [label="age-min <= 0.58\ngini = 0.5\nsamples = 4\nvalue = [4, 1, 1, 0]\nclass = extreme"] ;
845 -> 855 ;
856 [label="escolari-sum <= 0.09\ngini = 0.32\nsamples = 3\nvalue = [4, 1, 0, 0]\nclass = extreme"] ;
855 -> 856 ;
857 [label="gini = 0.0\nsamples = 2\nvalue = [4, 0, 0, 0]\nclass = extreme"] ;
856 -> 857 ;
858 [label="gini = 0.0\nsamples = 1\nvalue = [0, 1, 0, 0]\nclass = moderate"] ;
856 -> 858 ;
859 [label="gini = 0.0\nsamples = 1\nvalue = [0, 0, 1, 0]\nclass = vulnerable"] ;
855 -> 859 ;
860 [label="escolari/age-max <= 0.18\ngini = 0.62\nsamples = 69\nvalue = [3, 22, 26, 57]\nclass = non-vulnerable"] ;
828 -> 860 ;
861 [label="escolari/age-max <= 0.18\ngini = 0.64\nsamples = 65\nvalue = [3, 22, 26, 50]\nclass = non-vulnerable"] ;
860 -> 861 ;
862 [label="age-range_ <= 0.06\ngini = 0.63\nsamples = 64\nvalue = [3, 19, 26, 50]\nclass = non-vulnerable"] ;
861 -> 862 ;
863 [label="r4m2 <= 0.25\ngini = 0.57\nsamples = 55\nvalue = [2, 12, 20, 50]\nclass = non-vulnerable"] ;
862 -> 863 ;
864 [label="inst/age-max <= 0.04\ngini = 0.54\nsamples = 51\nvalue = [2, 12, 14, 49]\nclass = non-vulnerable"] ;
863 -> 864 ;
865 [label="lugar1 <= 0.5\ngini = 0.68\nsamples = 18\nvalue = [1, 6, 7, 10]\nclass = non-vulnerable"] ;
864 -> 865 ;
866 [label="floor <= 0.75\ngini = 0.5\nsamples = 4\nvalue = [0, 4, 4, 0]\nclass = moderate"] ;
865 -> 866 ;
867 [label="gini = 0.0\nsamples = 1\nvalue = [0, 0, 2, 0]\nclass = vulnerable"] ;
866 -> 867 ;
868 [label="escolari/age-min <= 0.07\ngini = 0.44\nsamples = 3\nvalue = [0, 4, 2, 0]\nclass = moderate"] ;
866 -> 868 ;
869 [label="gini = 0.0\nsamples = 2\nvalue = [0, 4, 0, 0]\nclass = moderate"] ;
868 -> 869 ;
870 [label="gini = 0.0\nsamples = 1\nvalue = [0, 0, 2, 0]\nclass = vulnerable"] ;
868 -> 870 ;
871 [label="escolari/age-min <= 0.02\ngini = 0.55\nsamples = 14\nvalue = [1, 2, 3, 10]\nclass = non-vulnerable"] ;
865 -> 871 ;
872 [label="gini = 0.0\nsamples = 1\nvalue = [0, 2, 0, 0]\nclass = moderate"] ;
871 -> 872 ;
873 [label="age-std <= 0.22\ngini = 0.44\nsamples = 13\nvalue = [1, 0, 3, 10]\nclass = non-vulnerable"] ;
871 -> 873 ;
874 [label="gini = 0.0\nsamples = 1\nvalue = [0, 0, 0, 2]\nclass = non-vulnerable"] ;
873 -> 874 ;
875 [label="bedrooms <= 0.07\ngini = 0.49\nsamples = 12\nvalue = [1, 0, 3, 8]\nclass = non-vulnerable"] ;
873 -> 875 ;
876 [label="gini = 0.0\nsamples = 3\nvalue = [0, 0, 0, 3]\nclass = non-vulnerable"] ;
875 -> 876 ;
877 [label="cielorazo <= 0.5\ngini = 0.57\nsamples = 9\nvalue = [1, 0, 3, 5]\nclass = non-vulnerable"] ;
875 -> 877 ;
878 [label="gini = 0.0\nsamples = 1\nvalue = [0, 0, 1, 0]\nclass = vulnerable"] ;
877 -> 878 ;
879 [label="edjefa <= 0.17\ngini = 0.53\nsamples = 8\nvalue = [1, 0, 2, 5]\nclass = non-vulnerable"] ;
877 -> 879 ;
880 [label="age-min <= 0.82\ngini = 0.45\nsamples = 7\nvalue = [1, 0, 1, 5]\nclass = non-vulnerable"] ;
879 -> 880 ;
881 [label="gini = 0.0\nsamples = 3\nvalue = [0, 0, 0, 3]\nclass = non-vulnerable"] ;
880 -> 881 ;
882 [label="escolari/age-max <= 0.05\ngini = 0.62\nsamples = 4\nvalue = [1, 0, 1, 2]\nclass = non-vulnerable"] ;
880 -> 882 ;
883 [label="gini = 0.0\nsamples = 2\nvalue = [0, 0, 0, 2]\nclass = non-vulnerable"] ;
882 -> 883 ;
884 [label="inst/age-max <= 0.03\ngini = 0.5\nsamples = 2\nvalue = [1, 0, 1, 0]\nclass = extreme"] ;
882 -> 884 ;
885 [label="gini = 0.0\nsamples = 1\nvalue = [0, 0, 1, 0]\nclass = vulnerable"] ;
884 -> 885 ;
886 [label="gini = 0.0\nsamples = 1\nvalue = [1, 0, 0, 0]\nclass = extreme"] ;
884 -> 886 ;
887 [label="gini = 0.0\nsamples = 1\nvalue = [0, 0, 1, 0]\nclass = vulnerable"] ;
879 -> 887 ;
888 [label="rooms <= 0.1\ngini = 0.43\nsamples = 33\nvalue = [1, 6, 7, 39]\nclass = non-vulnerable"] ;
864 -> 888 ;
889 [label="gini = 0.0\nsamples = 1\nvalue = [0, 2, 0, 0]\nclass = moderate"] ;
888 -> 889 ;
890 [label="escolari-std <= 0.33\ngini = 0.39\nsamples = 32\nvalue = [1, 4, 7, 39]\nclass = non-vulnerable"] ;
888 -> 890 ;
891 [label="escolari/age-min <= 0.13\ngini = 0.35\nsamples = 31\nvalue = [1, 4, 5, 39]\nclass = non-vulnerable"] ;
890 -> 891 ;
892 [label="age-sum <= 0.16\ngini = 0.23\nsamples = 24\nvalue = [0, 3, 2, 34]\nclass = non-vulnerable"] ;
891 -> 892 ;
893 [label="age-min <= 0.77\ngini = 0.42\nsamples = 7\nvalue = [0, 3, 0, 7]\nclass = non-vulnerable"] ;
892 -> 893 ;
894 [label="escolari/age-max <= 0.08\ngini = 0.22\nsamples = 6\nvalue = [0, 1, 0, 7]\nclass = non-vulnerable"] ;
893 -> 894 ;
895 [label="bonus <= 0.38\ngini = 0.44\nsamples = 2\nvalue = [0, 1, 0, 2]\nclass = non-vulnerable"] ;
894 -> 895 ;
896 [label="gini = 0.0\nsamples = 1\nvalue = [0, 1, 0, 0]\nclass = moderate"] ;
895 -> 896 ;
897 [label="gini = 0.0\nsamples = 1\nvalue = [0, 0, 0, 2]\nclass = non-vulnerable"] ;
895 -> 897 ;
898 [label="gini = 0.0\nsamples = 4\nvalue = [0, 0, 0, 5]\nclass = non-vulnerable"] ;
894 -> 898 ;
899 [label="gini = 0.0\nsamples = 1\nvalue = [0, 2, 0, 0]\nclass = moderate"] ;
893 -> 899 ;
900 [label="inst/age-std <= 0.0\ngini = 0.13\nsamples = 17\nvalue = [0, 0, 2, 27]\nclass = non-vulnerable"] ;
892 -> 900 ;
901 [label="escolari/age-range_ <= 0.0\ngini = 0.38\nsamples = 4\nvalue = [0, 0, 2, 6]\nclass = non-vulnerable"] ;
900 -> 901 ;
902 [label="gini = 0.0\nsamples = 3\nvalue = [0, 0, 0, 6]\nclass = non-vulnerable"] ;
901 -> 902 ;
903 [label="gini = 0.0\nsamples = 1\nvalue = [0, 0, 2, 0]\nclass = vulnerable"] ;
901 -> 903 ;
904 [label="gini = 0.0\nsamples = 13\nvalue = [0, 0, 0, 21]\nclass = non-vulnerable"] ;
900 -> 904 ;
905 [label="escolari/age-max <= 0.14\ngini = 0.64\nsamples = 7\nvalue = [1, 1, 3, 5]\nclass = non-vulnerable"] ;
891 -> 905 ;
906 [label="qmobilephone <= 0.05\ngini = 0.56\nsamples = 4\nvalue = [1, 1, 3, 0]\nclass = vulnerable"] ;
905 -> 906 ;
907 [label="gini = 0.0\nsamples = 1\nvalue = [1, 0, 0, 0]\nclass = extreme"] ;
906 -> 907 ;
908 [label="bonus <= 0.38\ngini = 0.38\nsamples = 3\nvalue = [0, 1, 3, 0]\nclass = vulnerable"] ;
906 -> 908 ;
909 [label="gini = 0.0\nsamples = 2\nvalue = [0, 0, 3, 0]\nclass = vulnerable"] ;
908 -> 909 ;
910 [label="gini = 0.0\nsamples = 1\nvalue = [0, 1, 0, 0]\nclass = moderate"] ;
908 -> 910 ;
911 [label="gini = 0.0\nsamples = 3\nvalue = [0, 0, 0, 5]\nclass = non-vulnerable"] ;
905 -> 911 ;
912 [label="gini = 0.0\nsamples = 1\nvalue = [0, 0, 2, 0]\nclass = vulnerable"] ;
890 -> 912 ;
913 [label="age-std <= 0.23\ngini = 0.24\nsamples = 4\nvalue = [0, 0, 6, 1]\nclass = vulnerable"] ;
863 -> 913 ;
914 [label="gini = 0.0\nsamples = 1\nvalue = [0, 0, 0, 1]\nclass = non-vulnerable"] ;
913 -> 914 ;
915 [label="gini = 0.0\nsamples = 3\nvalue = [0, 0, 6, 0]\nclass = vulnerable"] ;
913 -> 915 ;
916 [label="walls+roof+floor <= 0.75\ngini = 0.56\nsamples = 9\nvalue = [1, 7, 6, 0]\nclass = moderate"] ;
862 -> 916 ;
917 [label="gini = 0.0\nsamples = 2\nvalue = [0, 0, 3, 0]\nclass = vulnerable"] ;
916 -> 917 ;
918 [label="escolari/age-range_ <= 0.01\ngini = 0.51\nsamples = 7\nvalue = [1, 7, 3, 0]\nclass = moderate"] ;
916 -> 918 ;
919 [label="gini = 0.0\nsamples = 1\nvalue = [0, 3, 0, 0]\nclass = moderate"] ;
918 -> 919 ;
920 [label="escolari-min <= 0.17\ngini = 0.59\nsamples = 6\nvalue = [1, 4, 3, 0]\nclass = moderate"] ;
918 -> 920 ;
921 [label="instlevel3-std <= 0.5\ngini = 0.32\nsamples = 4\nvalue = [1, 4, 0, 0]\nclass = moderate"] ;
920 -> 921 ;
922 [label="gini = 0.0\nsamples = 2\nvalue = [0, 2, 0, 0]\nclass = moderate"] ;
921 -> 922 ;
923 [label="qmobilephone <= 0.05\ngini = 0.44\nsamples = 2\nvalue = [1, 2, 0, 0]\nclass = moderate"] ;
921 -> 923 ;
924 [label="gini = 0.0\nsamples = 1\nvalue = [0, 2, 0, 0]\nclass = moderate"] ;
923 -> 924 ;
925 [label="gini = 0.0\nsamples = 1\nvalue = [1, 0, 0, 0]\nclass = extreme"] ;
923 -> 925 ;
926 [label="gini = 0.0\nsamples = 2\nvalue = [0, 0, 3, 0]\nclass = vulnerable"] ;
920 -> 926 ;
927 [label="gini = 0.0\nsamples = 1\nvalue = [0, 3, 0, 0]\nclass = moderate"] ;
861 -> 927 ;
928 [label="gini = 0.0\nsamples = 4\nvalue = [0, 0, 0, 7]\nclass = non-vulnerable"] ;
860 -> 928 ;
929 [label="bedrooms <= 0.07\ngini = 0.71\nsamples = 24\nvalue = [8, 15, 5, 9]\nclass = moderate"] ;
827 -> 929 ;
930 [label="r4h3 <= 0.06\ngini = 0.34\nsamples = 6\nvalue = [1, 8, 0, 1]\nclass = moderate"] ;
929 -> 930 ;
931 [label="gini = 0.0\nsamples = 1\nvalue = [0, 0, 0, 1]\nclass = non-vulnerable"] ;
930 -> 931 ;
932 [label="pisomoscer <= 0.5\ngini = 0.2\nsamples = 5\nvalue = [1, 8, 0, 0]\nclass = moderate"] ;
930 -> 932 ;
933 [label="gini = 0.0\nsamples = 1\nvalue = [1, 0, 0, 0]\nclass = extreme"] ;
932 -> 933 ;
934 [label="gini = 0.0\nsamples = 4\nvalue = [0, 8, 0, 0]\nclass = moderate"] ;
932 -> 934 ;
