digraph Tree {
node [shape=box, style="filled, rounded", color="black", fontname=helvetica] ;
edge [fontname=helvetica] ;
0 [label="walls <= 0.75\ngini = 0.52\nsamples = 1873\nvalue = [209, 418, 362, 1984]\nclass = non-vulnerable", fillcolor="#d739e59c"] ;
1 [label="instlevel1-sum <= 0.1\ngini = 0.64\nsamples = 759\nvalue = [151, 254, 178, 650]\nclass = non-vulnerable", fillcolor="#d739e567"] ;
0 -> 1 [labeldistance=2.5, labelangle=45, headlabel="True"] ;
2 [label="edjefe <= 0.31\ngini = 0.54\nsamples = 459\nvalue = [50, 124, 99, 484]\nclass = non-vulnerable", fillcolor="#d739e591"] ;
1 -> 2 ;
3 [label="gini = 0.6\nsamples = 364\nvalue = [48, 119, 86, 348]\nclass = non-vulnerable", fillcolor="#d739e579"] ;
2 -> 3 ;
4 [label="gini = 0.23\nsamples = 95\nvalue = [2, 5, 13, 136]\nclass = non-vulnerable", fillcolor="#d739e5db"] ;
2 -> 4 ;
5 [label="escolari-range_ <= 0.69\ngini = 0.73\nsamples = 300\nvalue = [101, 130, 79, 166]\nclass = non-vulnerable", fillcolor="#d739e51b"] ;
1 -> 5 ;
6 [label="gini = 0.74\nsamples = 283\nvalue = [101, 130, 76, 140]\nclass = non-vulnerable", fillcolor="#d739e508"] ;
5 -> 6 ;
7 [label="gini = 0.19\nsamples = 17\nvalue = [0, 0, 3, 26]\nclass = non-vulnerable", fillcolor="#d739e5e2"] ;
5 -> 7 ;
8 [label="bonus <= 0.38\ngini = 0.39\nsamples = 1114\nvalue = [58, 164, 184, 1334]\nclass = non-vulnerable", fillcolor="#d739e5bc"] ;
0 -> 8 [labeldistance=2.5, labelangle=-45, headlabel="False"] ;
9 [label="age-min <= 0.18\ngini = 0.5\nsamples = 540\nvalue = [44, 119, 108, 564]\nclass = non-vulnerable", fillcolor="#d739e59e"] ;
8 -> 9 ;
10 [label="gini = 0.6\nsamples = 216\nvalue = [25, 59, 61, 196]\nclass = non-vulnerable", fillcolor="#d739e57b"] ;
9 -> 10 ;
11 [label="gini = 0.42\nsamples = 324\nvalue = [19, 60, 47, 368]\nclass = non-vulnerable", fillcolor="#d739e5b5"] ;
9 -> 11 ;
12 [label="edjefe <= 0.45\ngini = 0.27\nsamples = 574\nvalue = [14, 45, 76, 770]\nclass = non-vulnerable", fillcolor="#d739e5d5"] ;
8 -> 12 ;
13 [label="gini = 0.35\nsamples = 370\nvalue = [12, 42, 66, 456]\nclass = non-vulnerable", fillcolor="#d739e5c3"] ;
12 -> 13 ;
14 [label="gini = 0.09\nsamples = 204\nvalue = [2, 3, 10, 314]\nclass = non-vulnerable", fillcolor="#d739e5f3"] ;
12 -> 14 ;
}